{"learner":{"attributes":{"scikit_learn":"{\"_estimator_type\": \"regressor\"}"},"feature_names":["MedInc","HouseAge","AveRooms","AveBedrms","Population","AveOccup","Latitude","Longitude"],"feature_types":["float","float","float","float","float","float","float","float"],"gradient_booster":{"model":{"gbtree_model_param":{"num_parallel_tree":"1","num_trees":"100"},"iteration_indptr":[0,1,2,3,4,5,6,7,8,9,10,11,12,13,14,15,16,17,18,19,20,21,22,23,24,25,26,27,28,29,30,31,32,33,34,35,36,37,38,39,40,41,42,43,44,45,46,47,48,49,50,51,52,53,54,55,56,57,58,59,60,61,62,63,64,65,66,67,68,69,70,71,72,73,74,75,76,77,78,79,80,81,82,83,84,85,86,87,88,89,90,91,92,93,94,95,96,97,98,99,100],"tree_info":[0,0,0,0,0,0,0,0,0,0,0,0,0,0,0,0,0,0,0,0,0,0,0,0,0,0,0,0,0,0,0,0,0,0,0,0,0,0,0,0,0,0,0,0,0,0,0,0,0,0,0,0,0,0,0,0,0,0,0,0,0,0,0,0,0,0,0,0,0,0,0,0,0,0,0,0,0,0,0,0,0,0,0,0,0,0,0,0,0,0,0,0,0,0,0,0,0,0,0,0],"trees":[{"base_weights":[2.9634102E-3,-1.6585124E-1,9.302805E-1,3.5169113E-1,-3.6667565E-1,1.2579603E0,-2.4600056E-1,5.9957945E-1,-6.5650284E-1,-4.8652053E-1,-6.541476E-3,9.957814E-1,1.952404E0,4.7882214E-2,-7.1546185E-1,7.97002E-1,-2.0894672E-1,-3.3227265E-1,-8.917061E-1,-4.12489E-1,-9.5530534E-1,1.5770812E-1,-6.054874E-1,6.807552E-1,1.604117E0,1.4733278E0,2.3691063E0,4.6656296E-1,-6.2008876E-1,-5.796731E-1,-1.1915705E0,1.6844996E0,6.800803E-1,1.6570741E-2,-9.024101E-1,2.8706354E-1,-6.711247E-1,-7.568833E-1,-1.199639E0,1.01124726E-1,-5.1063913E-1,-7.5107884E-1,-1.114834E0,3.32248E-1,-4.8653752E-1,-4.039898E-1,-1.0720242E0,1.3391564E0,5.473861E-1,1.7443998E0,-9.481953E-2,1.1397768E0,1.8550764E0,2.428191E0,1.0884655E0,1.6285545E0,1.5090431E-1,-4.208427E-1,-1.4065209E-1,-6.058502E-1,1.4640316E-1,-6.3495576E-1,-1.2586991E-1,3.813005E-2,1.7978926E-1,1.0550382E-1,1.3777104E-2,3.9661106E-2,-5.0881345E-2,-1.3358806E-2,-9.7046986E-2,1.1214918E-1,-1.9425882E-3,-4.9466185E-2,-8.100119E-2,-6.952804E-2,-1.1054762E-1,-4.489646E-2,-1.2096616E-1,6.367144E-2,-5.797008E-3,-3.5159573E-2,-1.1623265E-1,-7.3181908E-3,-8.927211E-2,-7.459311E-2,-1.16725124E-1,7.539051E-2,5.5934815E-3,-2.0433351E-2,-7.9012625E-2,-3.5380644E-3,-6.409039E-2,-9.140969E-2,-1.22060396E-1,1.0147487E-1,1.8766516E-1,7.609277E-2,1.7132899E-2,1.9142921E-1,7.55108E-2,1.6397102E-2,-1.0055258E-1,1.2715745E-1,3.284618E-2,1.9388139E-1,7.125465E-2,2.5744244E-1,1.8931337E-1,1.3839363E-1,1.5153986E-2,2.7387759E-2,1.838216E-1,1.19305305E-1,-1.2321783E-2,-1.4632264E-2,-9.031744E-2,3.3378985E-2,-6.299167E-2,-7.447102E-2,-2.7696459E-2],"categories":[],"categories_nodes":[],"categories_segments":[],"categories_sizes":[],"default_left":[0,0,0,0,0,0,0,0,0,0,0,0,0,0,0,0,0,0,0,0,0,0,0,0,0,0,0,0,0,0,0,0,0,0,0,0,0,0,0,0,0,0,0,0,0,0,0,0,0,0,0,0,0,0,0,0,0,0,0,0,0,0,0,0,0,0,0,0,0,0,0,0,0,0,0,0,0,0,0,0,0,0,0,0,0,0,0,0,0,0,0,0,0,0,0,0,0,0,0,0,0,0,0,0,0,0,0,0,0,0,0,0,0,0,0,0,0,0,0,0,0],"id":0,"left_children":[1,3,5,7,9,11,13,15,17,19,21,23,25,27,29,31,33,35,37,39,41,43,45,47,49,51,53,55,57,59,61,63,65,67,69,71,73,75,77,79,81,83,85,87,89,91,93,95,97,99,101,103,105,107,109,111,113,115,-1,117,-1,119,-1,-1,-1,-1,-1,-1,-1,-1,-1,-1,-1,-1,-1,-1,-1,-1,-1,-1,-1,-1,-1,-1,-1,-1,-1,-1,-1,-1,-1,-1,-1,-1,-1,-1,-1,-1,-1,-1,-1,-1,-1,-1,-1,-1,-1,-1,-1,-1,-1,-1,-1,-1,-1,-1,-1,-1,-1,-1,-1],"loss_changes":[2.0674836E3,1.1613962E3,7.843015E2,7.811422E2,3.4743677E2,2.877268E2,6.1291428E1,4.0049677E2,4.6756134E1,2.0922314E2,1.979309E2,2.2063733E2,8.334973E1,7.691795E1,1.0364464E1,2.080503E2,7.711429E1,5.4966988E1,1.3913361E1,2.6309766E2,2.5976074E1,1.7771477E2,4.027153E1,6.6354065E1,9.406799E1,2.39888E1,1.4835693E1,6.1742203E1,1.6017586E1,8.109257E0,5.8327866E-1,3.3893433E1,3.624156E2,7.467765E1,6.20179E0,2.3805927E1,3.741249E0,4.62146E0,2.619629E-1,7.144249E1,4.53667E2,3.488553E1,8.024231E0,1.44779E2,2.871067E1,2.652525E1,1.9346771E0,2.0414719E1,5.102318E1,5.9733154E1,7.4710255E0,1.1558426E1,7.611725E0,1.2339844E1,3.1122885E0,9.721397E0,3.8427593E1,1.1255081E1,0E0,3.2405167E0,0E0,2.9488325E-2,0E0,0E0,0E0,0E0,0E0,0E0,0E0,0E0,0E0,0E0,0E0,0E0,0E0,0E0,0E0,0E0,0E0,0E0,0E0,0E0,0E0,0E0,0E0,0E0,0E0,0E0,0E0,0E0,0E0,0E0,0E0,0E0,0E0,0E0,0E0,0E0,0E0,0E0,0E0,0E0,0E0,0E0,0E0,0E0,0E0,0E0,0E0,0E0,0E0,0E0,0E0,0E0,0E0,0E0,0E0,0E0,0E0,0E0,0E0],"parents":[2147483647,0,0,1,1,2,2,3,3,4,4,5,5,6,6,7,7,8,8,9,9,10,10,11,11,12,12,13,13,14,14,15,15,16,16,17,17,18,18,19,19,20,20,21,21,22,22,23,23,24,24,25,25,26,26,27,27,28,28,29,29,30,30,31,31,32,32,33,33,34,34,35,35,36,36,37,37,38,38,39,39,40,40,41,41,42,42,43,43,44,44,45,45,46,46,47,47,48,48,49,49,50,50,51,51,52,52,53,53,54,54,55,55,56,56,57,57,59,59,61,61],"right_children":[2,4,6,8,10,12,14,16,18,20,22,24,26,28,30,32,34,36,38,40,42,44,46,48,50,52,54,56,58,60,62,64,66,68,70,72,74,76,78,80,82,84,86,88,90,92,94,96,98,100,102,104,106,108,110,112,114,116,-1,118,-1,120,-1,-1,-1,-1,-1,-1,-1,-1,-1,-1,-1,-1,-1,-1,-1,-1,-1,-1,-1,-1,-1,-1,-1,-1,-1,-1,-1,-1,-1,-1,-1,-1,-1,-1,-1,-1,-1,-1,-1,-1,-1,-1,-1,-1,-1,-1,-1,-1,-1,-1,-1,-1,-1,-1,-1,-1,-1,-1,-1],"split_conditions":[6.5110292E0,2.448485E0,1.2252427E0,3.794E1,5.7334557E0,7.546392E0,3.792E1,-1.1775E2,3.854E1,3.793E1,3.794E1,2.9E1,2.1E1,-1.1712E2,3.941E1,-1.2232E2,3.366E1,-1.2239E2,3.941E1,-1.2145E2,3.851E1,-1.1762E2,3.904E1,2.7E0,3.8E1,8E0,3.799E1,3.371E1,-1.1617E2,2.5636364E1,1.2E1,2.2E1,3.461E1,-1.1715E2,-1.1768E2,3.803E1,-1.2195E2,1.1629465E0,9E0,-1.2236E2,3.451E1,-1.2244E2,1.5E1,2.8646507E0,3.367E1,-1.2191E2,2.1E1,2E1,1.0549451E0,-1.1801E2,3.868E1,3.794E1,3.811E1,-1.1804E2,-1.2127E2,1.8762711E0,-1.2171E2,3.385E1,-1.4065209E-1,1.8411924E0,1.4640316E-1,1E1,-1.2586991E-1,3.813005E-2,1.7978926E-1,1.0550382E-1,1.3777104E-2,3.9661106E-2,-5.0881345E-2,-1.3358806E-2,-9.7046986E-2,1.1214918E-1,-1.9425882E-3,-4.9466185E-2,-8.100119E-2,-6.952804E-2,-1.1054762E-1,-4.489646E-2,-1.2096616E-1,6.367144E-2,-5.797008E-3,-3.5159573E-2,-1.1623265E-1,-7.3181908E-3,-8.927211E-2,-7.459311E-2,-1.16725124E-1,7.539051E-2,5.5934815E-3,-2.0433351E-2,-7.9012625E-2,-3.5380644E-3,-6.409039E-2,-9.140969E-2,-1.22060396E-1,1.0147487E-1,1.8766516E-1,7.609277E-2,1.7132899E-2,1.9142921E-1,7.55108E-2,1.6397102E-2,-1.0055258E-1,1.2715745E-1,3.284618E-2,1.9388139E-1,7.125465E-2,2.5744244E-1,1.8931337E-1,1.3839363E-1,1.5153986E-2,2.7387759E-2,1.838216E-1,1.19305305E-1,-1.2321783E-2,-1.4632264E-2,-9.031744E-2,3.3378985E-2,-6.299167E-2,-7.447102E-2,-2.7696459E-2],"split_indices":[2,5,3,6,2,2,6,7,6,6,6,1,1,7,6,7,6,7,6,7,6,7,6,5,6,2,6,6,7,3,1,1,6,7,7,6,7,3,1,7,6,7,1,5,6,7,1,1,3,7,6,6,6,7,7,5,7,6,0,5,0,1,0,0,0,0,0,0,0,0,0,0,0,0,0,0,0,0,0,0,0,0,0,0,0,0,0,0,0,0,0,0,0,0,0,0,0,0,0,0,0,0,0,0,0,0,0,0,0,0,0,0,0,0,0,0,0,0,0,0,0],"split_type":[0,0,0,0,0,0,0,0,0,0,0,0,0,0,0,0,0,0,0,0,0,0,0,0,0,0,0,0,0,0,0,0,0,0,0,0,0,0,0,0,0,0,0,0,0,0,0,0,0,0,0,0,0,0,0,0,0,0,0,0,0,0,0,0,0,0,0,0,0,0,0,0,0,0,0,0,0,0,0,0,0,0,0,0,0,0,0,0,0,0,0,0,0,0,0,0,0,0,0,0,0,0,0,0,0,0,0,0,0,0,0,0,0,0,0,0,0,0,0,0,0],"sum_hessian":[1.3205E4,1.1172E4,2.033E3,3.123E3,8.049E3,1.59E3,4.43E2,2.507E3,6.16E2,6.039E3,2.01E3,1.156E3,4.34E2,2.73E2,1.7E2,2.015E3,4.92E2,2.6E2,3.56E2,5.217E3,8.22E2,1.578E3,4.32E2,7.63E2,3.93E2,2.04E2,2.3E2,1.68E2,1.05E2,1.34E2,3.6E1,2.33E2,1.782E3,3.72E2,1.2E2,9.2E1,1.68E2,2.5E2,1.06E2,8.37E2,4.38E3,3.63E2,4.59E2,1.242E3,3.36E2,3.03E2,1.29E2,1.27E2,6.36E2,3.63E2,3E1,1.11E2,9.3E1,2.19E2,1.1E1,3.5E1,1.33E2,8.5E1,2E1,1.33E2,1E0,5E0,3.1E1,1.9E1,2.14E2,1.053E3,7.29E2,2.16E2,1.56E2,1E1,1.1E2,2.4E1,6.8E1,7.6E1,9.2E1,2.15E2,3.5E1,2E0,1.04E2,1.91E2,6.46E2,3.522E3,8.58E2,6.3E1,3E2,5.9E1,4E2,4.91E2,7.51E2,1.75E2,1.61E2,1.19E2,1.84E2,6.6E1,6.3E1,8.1E1,4.6E1,4.05E2,2.31E2,3.09E2,5.4E1,2.4E1,6E0,9.5E1,1.6E1,8.6E1,7E0,1.69E2,5E1,8E0,3E0,5E0,3E1,2.7E1,1.06E2,5.5E1,3E1,3E0,1.3E2,3E0,2E0],"tree_param":{"num_deleted":"0","num_feature":"8","num_nodes":"121","size_leaf_vector":"1"}},{"base_weights":[2.0130756E-3,-2.4942508E-1,1.4825437E0,-6.371754E-1,1.13202125E-1,1.1452029E0,2.298047E0,-3.946682E-1,-8.14179E-1,3.6720044E-3,5.676959E-1,8.578117E-1,1.6257025E0,2.0285742E0,2.5136886E0,-6.494065E-1,-1.2901433E-1,-1.0470724E0,-6.371159E-1,-2.0639269E-1,1.9946146E-1,1.1398255E0,3.9337516E-1,6.740867E-1,1.1538744E0,1.4521456E0,1.9724349E0,1.7193589E0,2.440205E0,7.213006E-1,2.5590813E0,-2.719945E-1,-8.553158E-1,1.334645E-1,-3.903418E-1,-8.806098E-1,-1.1309868E0,-4.5487455E-1,-7.6626194E-1,1.7614006E-1,-3.616397E-1,-6.1067753E-2,3.3404952E-1,1.2364522E0,-2.548013E-1,8.932459E-2,8.0071014E-1,7.511141E-1,1.571767E-1,1.6191181E0,1.0428454E0,1.2709312E0,1.8563695E0,2.1465378E0,1.3659949E0,1.915612E0,1.4210514E0,4.5181204E-2,2.4547012E0,-6.447483E-2,1.2037071E0,2.5745466E-1,1.6982298E-1,-5.792699E-2,-8.303766E-3,-9.664591E-2,-6.47616E-2,5.2541193E-2,-1.8274263E-3,-3.5110503E-2,-6.784987E-2,-3.4053497E-2,-9.619167E-2,-1.0613836E-1,-1.3291754E-1,-6.536868E-2,-2.8978392E-2,-5.832709E-2,-8.334968E-2,3.7029285E-2,-1.5696159E-2,-2.1972334E-2,-4.7549706E-2,2.232269E-2,-1.4889346E-2,4.889501E-2,1.0069896E-2,8.3405785E-2,1.8542615E-1,-8.50045E-2,2.0126693E-2,2.221003E-2,-2.9932726E-2,1.6568224E-1,7.264262E-2,1.4926879E-1,6.847862E-2,7.3203154E-2,2.5619979E-3,1.7473169E-1,7.905727E-2,1.13237016E-1,8.243954E-2,1.4165436E-1,9.043815E-2,1.8972968E-1,3.588673E-2,2.1683788E-1,9.273692E-2,1.4489809E-1,-1.4049225E-2,2.3278259E-1,1.645854E-1,9.4943844E-2,1.5025572E-1,2.4657111E-1,6.4932816E-2,1.5287626E-1,-3.733126E-2,-3.0383736E-2,5.585718E-2],"categories":[],"categories_nodes":[],"categories_segments":[],"categories_sizes":[],"default_left":[0,0,0,0,0,0,0,0,0,0,0,0,0,0,0,0,0,0,0,0,0,0,0,0,0,0,0,0,0,0,0,0,0,0,0,0,0,0,0,0,0,0,0,0,0,0,0,0,0,0,0,0,0,0,0,0,0,0,0,0,0,0,0,0,0,0,0,0,0,0,0,0,0,0,0,0,0,0,0,0,0,0,0,0,0,0,0,0,0,0,0,0,0,0,0,0,0,0,0,0,0,0,0,0,0,0,0,0,0,0,0,0,0,0,0,0,0,0,0,0,0],"id":1,"left_children":[1,3,5,7,9,11,13,15,17,19,21,23,25,27,29,31,33,35,37,39,41,43,45,47,49,51,53,55,57,59,61,63,65,67,69,71,73,75,77,79,81,83,85,87,89,91,93,95,97,99,101,103,105,107,109,111,113,-1,115,-1,117,-1,119,-1,-1,-1,-1,-1,-1,-1,-1,-1,-1,-1,-1,-1,-1,-1,-1,-1,-1,-1,-1,-1,-1,-1,-1,-1,-1,-1,-1,-1,-1,-1,-1,-1,-1,-1,-1,-1,-1,-1,-1,-1,-1,-1,-1,-1,-1,-1,-1,-1,-1,-1,-1,-1,-1,-1,-1,-1,-1],"loss_changes":[4.9335845E3,1.5930295E3,5.266655E2,2.3469092E2,2.9146426E2,1.8682397E2,2.7557861E1,1.5637433E2,1.298064E2,1.9412634E2,1.1294925E2,4.5729187E1,2.7766235E1,2.8261475E1,2.3213501E1,9.146835E1,7.776788E1,1.8071167E1,4.201587E1,1.3528806E2,8.5682045E1,3.6026E1,1.080499E2,2.0984512E1,1.5151215E1,2.2765808E1,1.4700195E1,6.0008545E0,1.9750977E0,6.7070074E0,1.0648071E1,2.4221725E1,1.6987488E1,3.367167E1,6.183777E0,1.9959656E1,1.105957E1,2.4394287E1,1.245697E1,4.2612698E1,2.6071838E1,2.0831898E1,5.8182175E1,6.0106995E1,5.0575767E0,2.5919846E1,2.2517563E1,2.1653046E1,5.2750673E0,5.097946E0,4.2685547E0,1.1528717E1,5.693115E0,1.397522E0,5.204262E0,5.842987E0,9.9508667E-1,0E0,5.059204E-1,0E0,4.1590376E0,0E0,7.221197E-1,0E0,0E0,0E0,0E0,0E0,0E0,0E0,0E0,0E0,0E0,0E0,0E0,0E0,0E0,0E0,0E0,0E0,0E0,0E0,0E0,0E0,0E0,0E0,0E0,0E0,0E0,0E0,0E0,0E0,0E0,0E0,0E0,0E0,0E0,0E0,0E0,0E0,0E0,0E0,0E0,0E0,0E0,0E0,0E0,0E0,0E0,0E0,0E0,0E0,0E0,0E0,0E0,0E0,0E0,0E0,0E0,0E0,0E0],"parents":[2147483647,0,0,1,1,2,2,3,3,4,4,5,5,6,6,7,7,8,8,9,9,10,10,11,11,12,12,13,13,14,14,15,15,16,16,17,17,18,18,19,19,20,20,21,21,22,22,23,23,24,24,25,25,26,26,27,27,28,28,29,29,30,30,31,31,32,32,33,33,34,34,35,35,36,36,37,37,38,38,39,39,40,40,41,41,42,42,43,43,44,44,45,45,46,46,47,47,48,48,49,49,50,50,51,51,52,52,53,53,54,54,55,55,56,56,58,58,60,60,62,62],"right_children":[2,4,6,8,10,12,14,16,18,20,22,24,26,28,30,32,34,36,38,40,42,44,46,48,50,52,54,56,58,60,62,64,66,68,70,72,74,76,78,80,82,84,86,88,90,92,94,96,98,100,102,104,106,108,110,112,114,-1,116,-1,118,-1,120,-1,-1,-1,-1,-1,-1,-1,-1,-1,-1,-1,-1,-1,-1,-1,-1,-1,-1,-1,-1,-1,-1,-1,-1,-1,-1,-1,-1,-1,-1,-1,-1,-1,-1,-1,-1,-1,-1,-1,-1,-1,-1,-1,-1,-1,-1,-1,-1,-1,-1,-1,-1,-1,-1,-1,-1,-1,-1],"split_conditions":[5.5942E0,3.1875E0,7.6659E0,4.3419914E0,3.9E1,2.8E1,8.7471E0,2.2328E0,2.3846E0,4.125E0,-1.2234E2,6.5095E0,6.5891E0,2.9E1,6.9E1,3.4459016E0,-1.1828E2,3.529E1,5.009709E0,4.728395E0,1.8E1,3.811E1,4.125E0,3.796E1,-1.2199E2,4E1,3.754E1,-1.1802E2,1.68E2,3.407E1,3.799E1,3.405E1,1.962E0,3.417E1,-1.1714E2,-1.1831E2,-1.1985E2,2.7813E0,3.468E1,-1.1811E2,3.44E1,-1.2154E2,-1.1828E2,3.777E1,-1.2287E2,3.761E1,3.377E1,-1.2202E2,-1.2244E2,3.816E1,3.486E1,-1.1834E2,3.792E1,-1.1723E2,-1.2135E2,3.425E1,7.49E2,4.5181204E-2,3.855E1,-6.447483E-2,4.4E1,2.5745466E-1,1.05144E1,-5.792699E-2,-8.303766E-3,-9.664591E-2,-6.47616E-2,5.2541193E-2,-1.8274263E-3,-3.5110503E-2,-6.784987E-2,-3.4053497E-2,-9.619167E-2,-1.0613836E-1,-1.3291754E-1,-6.536868E-2,-2.8978392E-2,-5.832709E-2,-8.334968E-2,3.7029285E-2,-1.5696159E-2,-2.1972334E-2,-4.7549706E-2,2.232269E-2,-1.4889346E-2,4.889501E-2,1.0069896E-2,8.3405785E-2,1.8542615E-1,-8.50045E-2,2.0126693E-2,2.221003E-2,-2.9932726E-2,1.6568224E-1,7.264262E-2,1.4926879E-1,6.847862E-2,7.3203154E-2,2.5619979E-3,1.7473169E-1,7.905727E-2,1.13237016E-1,8.243954E-2,1.4165436E-1,9.043815E-2,1.8972968E-1,3.588673E-2,2.1683788E-1,9.273692E-2,1.4489809E-1,-1.4049225E-2,2.3278259E-1,1.645854E-1,9.4943844E-2,1.5025572E-1,2.4657111E-1,6.4932816E-2,1.5287626E-1,-3.733126E-2,-3.0383736E-2,5.585718E-2],"split_indices":[0,0,0,2,1,1,0,0,0,0,7,0,0,1,4,2,7,6,2,2,1,6,0,6,7,1,6,7,4,6,6,6,0,6,7,7,7,0,6,7,6,7,7,6,7,6,6,7,7,6,6,7,6,7,7,6,4,0,6,0,1,0,0,0,0,0,0,0,0,0,0,0,0,0,0,0,0,0,0,0,0,0,0,0,0,0,0,0,0,0,0,0,0,0,0,0,0,0,0,0,0,0,0,0,0,0,0,0,0,0,0,0,0,0,0,0,0,0,0,0,0],"split_type":[0,0,0,0,0,0,0,0,0,0,0,0,0,0,0,0,0,0,0,0,0,0,0,0,0,0,0,0,0,0,0,0,0,0,0,0,0,0,0,0,0,0,0,0,0,0,0,0,0,0,0,0,0,0,0,0,0,0,0,0,0,0,0,0,0,0,0,0,0,0,0,0,0,0,0,0,0,0,0,0,0,0,0,0,0,0,0,0,0,0,0,0,0,0,0,0,0,0,0,0,0,0,0,0,0,0,0,0,0,0,0,0,0,0,0,0,0,0,0,0,0],"sum_hessian":[1.3251E4,1.1328E4,1.923E3,5.474E3,5.854E3,1.362E3,5.61E2,2.311E3,3.163E3,4.718E3,1.136E3,8.54E2,5.08E2,2.54E2,3.07E2,1.179E3,1.132E3,1.364E3,1.799E3,2.276E3,2.442E3,2.64E2,8.72E2,5.29E2,3.25E2,3.42E2,1.66E2,1.48E2,1.06E2,8E0,2.99E2,4.17E2,7.62E2,5.65E2,5.67E2,4.61E2,9.03E2,7.48E2,1.051E3,6.57E2,1.619E3,8.32E2,1.61E3,2.47E2,1.7E1,5E2,3.72E2,4.6E2,6.9E1,6E1,2.65E2,2.39E2,1.03E2,1.27E2,3.9E1,8.6E1,6.2E1,1E0,1.05E2,2E0,6E0,2.97E2,2E0,1.58E2,2.59E2,4.94E2,2.68E2,1.57E2,4.08E2,5.01E2,6.6E1,6.1E1,4E2,6.73E2,2.3E2,3.38E2,4.1E2,2.85E2,7.66E2,4.15E2,2.42E2,7.22E2,8.97E2,1.96E2,6.36E2,9.67E2,6.43E2,1.51E2,9.6E1,7E0,1E1,3.73E2,1.27E2,2.8E1,3.44E2,3.6E1,4.24E2,1.2E1,5.7E1,5.1E1,9E0,1.85E2,8E1,1.69E2,7E1,1E2,3E0,1.24E2,3E0,3.7E1,2E0,3.1E1,5.5E1,1.1E1,5.1E1,1.04E2,1E0,5E0,1E0,1E0,1E0],"tree_param":{"num_deleted":"0","num_feature":"8","num_nodes":"121","size_leaf_vector":"1"}},{"base_weights":[7.7246653E-4,-2.839317E-1,1.0832908E0,-6.0115296E-1,1.3221774E-2,7.5219256E-1,1.7987865E0,-1.3428338E-1,-6.822976E-1,6.630711E-1,-1.6545151E-1,1.2697663E0,4.649805E-1,1.3890156E0,2.0990198E0,4.0997777E-2,-6.429948E-1,-5.0469035E-1,-8.5113394E-1,1.9010884E-1,9.6895444E-1,-3.2456052E-1,3.2467943E-2,7.9105324E-1,1.4590003E0,2.723708E-1,7.132522E-1,1.1040277E0,1.8440382E0,2.1897995E0,1.7002236E0,-3.410257E-1,3.0014586E-1,-4.54627E-1,-7.6789016E-1,-3.7419125E-1,-6.463738E-1,-9.7415334E-1,-6.562692E-1,-2.2899215E-1,3.169659E-1,1.6023798E0,6.6542643E-1,-3.7788266E-1,6.2181663E-2,3.1873488E-1,-1.2588914E-1,4.340728E-1,1.1361983E0,2.2680173E0,1.2711192E0,4.973561E-1,9.589173E-2,5.779153E-1,1.0842009E0,8.758034E-1,1.2668321E0,2.021639E0,1.225658E0,1.9245487E0,2.2981129E0,1.5104456E0,2.245142E0,-5.8848966E-2,6.8665477E-3,1.974782E-3,6.298968E-2,-6.208871E-2,-1.6237263E-2,-6.5682165E-2,-8.7509416E-2,-5.2474376E-2,-2.0731624E-2,-9.5506445E-2,-6.0736705E-2,-1.0049303E-1,-4.987035E-2,-7.170751E-2,-2.277361E-3,-5.7805903E-2,-7.900356E-3,1.5243359E-2,6.547201E-2,1.7109959E-1,2.4013726E-2,8.1987314E-2,-1.9093545E-2,-2.708208E-2,-5.0134774E-2,1.2815379E-2,-5.9993114E-2,-3.3376329E-3,4.6067815E-2,-1.5686441E-2,2.8257538E-2,-4.3225765E-2,5.1774215E-2,1.2519674E-1,2.1183677E-2,2.363348E-1,5.5538535E-2,9.887021E-2,1.5414113E-1,5.8802795E-2,7.340601E-3,-1.9264651E-2,1.9679675E-2,4.1845188E-2,7.607453E-2,1.1642976E-1,3.9039676E-3,7.006302E-2,1.03346065E-1,1.8047987E-1,1.1716127E-1,1.6883735E-1,2.1784349E-1,-2.6366336E-2,1.2787788E-1,1.5946832E-1,2.2667311E-1,9.553777E-2,2.3239349E-1,-5.1367577E-2,1.5729377E-1,2.2989535E-1,5.3064324E-2],"categories":[],"categories_nodes":[],"categories_segments":[],"categories_sizes":[],"default_left":[0,0,0,0,0,0,0,0,0,0,0,0,0,0,0,0,0,0,0,0,0,0,0,0,0,0,0,0,0,0,0,0,0,0,0,0,0,0,0,0,0,0,0,0,0,0,0,0,0,0,0,0,0,0,0,0,0,0,0,0,0,0,0,0,0,0,0,0,0,0,0,0,0,0,0,0,0,0,0,0,0,0,0,0,0,0,0,0,0,0,0,0,0,0,0,0,0,0,0,0,0,0,0,0,0,0,0,0,0,0,0,0,0,0,0,0,0,0,0,0,0,0,0,0,0,0,0],"id":2,"left_children":[1,3,5,7,9,11,13,15,17,19,21,23,25,27,29,31,33,35,37,39,41,43,45,47,49,51,53,55,57,59,61,63,65,67,69,71,73,75,77,79,81,83,85,87,89,91,93,95,97,99,101,103,105,107,109,111,113,115,117,119,121,123,125,-1,-1,-1,-1,-1,-1,-1,-1,-1,-1,-1,-1,-1,-1,-1,-1,-1,-1,-1,-1,-1,-1,-1,-1,-1,-1,-1,-1,-1,-1,-1,-1,-1,-1,-1,-1,-1,-1,-1,-1,-1,-1,-1,-1,-1,-1,-1,-1,-1,-1,-1,-1,-1,-1,-1,-1,-1,-1,-1,-1,-1,-1,-1,-1],"loss_changes":[4.0641992E3,9.842123E2,6.491726E2,1.9122217E2,6.2617865E2,2.7872937E2,1.03871826E2,6.6812836E1,1.2857263E2,1.6806851E2,1.3321649E2,5.9540527E1,5.766739E1,4.5944153E1,1.4342041E1,5.534472E1,4.167938E0,3.856775E1,5.2195312E1,2.4422577E1,1.346709E2,4.838188E1,8.553702E1,2.316314E1,6.992456E1,2.7070957E1,2.5880615E1,7.436371E0,1.3007446E1,7.1555176E0,6.6399536E0,2.2953146E1,3.0777248E1,3.7378159E0,7.826233E-1,2.7401398E1,1.1521179E1,1.9238647E1,3.295703E1,5.5564284E0,1.9461357E1,3.332434E1,6.3510178E1,2.7107391E1,1.2525965E1,3.3601814E1,1.541687E1,7.1823845E0,1.0114998E1,1.3218079E1,2.832306E1,1.1488945E1,1.1218056E1,1.1022827E1,1.16744995E1,2.0100403E0,4.647156E0,1.9655151E0,3.0270424E0,1.0268799E1,7.522583E0,1.0294846E1,9.0206146E-1,0E0,0E0,0E0,0E0,0E0,0E0,0E0,0E0,0E0,0E0,0E0,0E0,0E0,0E0,0E0,0E0,0E0,0E0,0E0,0E0,0E0,0E0,0E0,0E0,0E0,0E0,0E0,0E0,0E0,0E0,0E0,0E0,0E0,0E0,0E0,0E0,0E0,0E0,0E0,0E0,0E0,0E0,0E0,0E0,0E0,0E0,0E0,0E0,0E0,0E0,0E0,0E0,0E0,0E0,0E0,0E0,0E0,0E0,0E0,0E0,0E0,0E0,0E0,0E0],"parents":[2147483647,0,0,1,1,2,2,3,3,4,4,5,5,6,6,7,7,8,8,9,9,10,10,11,11,12,12,13,13,14,14,15,15,16,16,17,17,18,18,19,19,20,20,21,21,22,22,23,23,24,24,25,25,26,26,27,27,28,28,29,29,30,30,31,31,32,32,33,33,34,34,35,35,36,36,37,37,38,38,39,39,40,40,41,41,42,42,43,43,44,44,45,45,46,46,47,47,48,48,49,49,50,50,51,51,52,52,53,53,54,54,55,55,56,56,57,57,58,58,59,59,60,60,61,61,62,62],"right_children":[2,4,6,8,10,12,14,16,18,20,22,24,26,28,30,32,34,36,38,40,42,44,46,48,50,52,54,56,58,60,62,64,66,68,70,72,74,76,78,80,82,84,86,88,90,92,94,96,98,100,102,104,106,108,110,112,114,116,118,120,122,124,126,-1,-1,-1,-1,-1,-1,-1,-1,-1,-1,-1,-1,-1,-1,-1,-1,-1,-1,-1,-1,-1,-1,-1,-1,-1,-1,-1,-1,-1,-1,-1,-1,-1,-1,-1,-1,-1,-1,-1,-1,-1,-1,-1,-1,-1,-1,-1,-1,-1,-1,-1,-1,-1,-1,-1,-1,-1,-1,-1,-1,-1,-1,-1,-1],"split_conditions":[5.0736E0,3.099E0,6.828E0,2.1589403E0,2.3433242E0,2.669708E0,7.8287E0,3.793E1,3.451E1,2.5E1,4.0556E0,2E1,5.826E0,2.7E1,3.2137096E0,3.399E1,3.854E1,3.4362416E0,2.5125E0,3.375E0,1.9598699E0,4.4E1,2.7748537E0,5.6345E0,2.144781E0,3.0374532E0,2.7E1,1.01002E0,3.758E1,8.4411E0,1.05144E1,2.8E1,2.5667E0,3.828E1,3.868E1,3.401E1,3.371E1,5.2E1,4.8E1,8.61E2,1.9E1,3.782E1,3.794E1,3.451E1,3.782E1,2.1E1,4.3E1,3.16E2,3.796E1,3.79E1,5.7214E0,3.79E1,1.6E1,6.2924E0,3.3087718E0,1.133E3,2.4222221E0,1.0142857E0,3.766E1,3.2E1,6.9E1,1.38E2,3.788E1,-5.8848966E-2,6.8665477E-3,1.974782E-3,6.298968E-2,-6.208871E-2,-1.6237263E-2,-6.5682165E-2,-8.7509416E-2,-5.2474376E-2,-2.0731624E-2,-9.5506445E-2,-6.0736705E-2,-1.0049303E-1,-4.987035E-2,-7.170751E-2,-2.277361E-3,-5.7805903E-2,-7.900356E-3,1.5243359E-2,6.547201E-2,1.7109959E-1,2.4013726E-2,8.1987314E-2,-1.9093545E-2,-2.708208E-2,-5.0134774E-2,1.2815379E-2,-5.9993114E-2,-3.3376329E-3,4.6067815E-2,-1.5686441E-2,2.8257538E-2,-4.3225765E-2,5.1774215E-2,1.2519674E-1,2.1183677E-2,2.363348E-1,5.5538535E-2,9.887021E-2,1.5414113E-1,5.8802795E-2,7.340601E-3,-1.9264651E-2,1.9679675E-2,4.1845188E-2,7.607453E-2,1.1642976E-1,3.9039676E-3,7.006302E-2,1.03346065E-1,1.8047987E-1,1.1716127E-1,1.6883735E-1,2.1784349E-1,-2.6366336E-2,1.2787788E-1,1.5946832E-1,2.2667311E-1,9.553777E-2,2.3239349E-1,-5.1367577E-2,1.5729377E-1,2.2989535E-1,5.3064324E-2],"split_indices":[0,0,0,5,5,5,0,6,6,1,0,1,0,1,5,6,6,5,0,0,5,1,5,0,5,5,1,3,6,0,0,1,0,6,6,6,6,1,1,4,1,6,6,6,6,1,1,4,6,6,0,6,1,0,5,4,5,3,6,1,4,4,6,0,0,0,0,0,0,0,0,0,0,0,0,0,0,0,0,0,0,0,0,0,0,0,0,0,0,0,0,0,0,0,0,0,0,0,0,0,0,0,0,0,0,0,0,0,0,0,0,0,0,0,0,0,0,0,0,0,0,0,0,0,0,0,0],"split_type":[0,0,0,0,0,0,0,0,0,0,0,0,0,0,0,0,0,0,0,0,0,0,0,0,0,0,0,0,0,0,0,0,0,0,0,0,0,0,0,0,0,0,0,0,0,0,0,0,0,0,0,0,0,0,0,0,0,0,0,0,0,0,0,0,0,0,0,0,0,0,0,0,0,0,0,0,0,0,0,0,0,0,0,0,0,0,0,0,0,0,0,0,0,0,0,0,0,0,0,0,0,0,0,0,0,0,0,0,0,0,0,0,0,0,0,0,0,0,0,0,0,0,0,0,0,0,0],"sum_hessian":[1.3185E4,1.044E4,2.745E3,5.049E3,5.391E3,1.878E3,8.67E2,7.48E2,4.301E3,1.162E3,4.229E3,6.69E2,1.209E3,3.69E2,4.98E2,5.57E2,1.91E2,2.098E3,2.203E3,4.57E2,7.05E2,2.344E3,1.885E3,1.91E2,4.78E2,6.82E2,5.27E2,2.29E2,1.4E2,4.02E2,9.6E1,2.25E2,3.32E2,7.8E1,1.13E2,1.094E3,1.004E3,1.348E3,8.55E2,1.06E2,3.51E2,2.27E2,4.78E2,2.06E3,2.84E2,6.71E2,1.214E3,9.5E1,9.6E1,8.8E1,3.9E2,2.99E2,3.83E2,3.88E2,1.39E2,9.8E1,1.31E2,1.07E2,3.3E1,1.22E2,2.8E2,7.4E1,2.2E1,1.4E2,8.5E1,1.8E2,1.52E2,4.9E1,2.9E1,5.9E1,5.4E1,5.74E2,5.2E2,1.1E2,8.94E2,1.265E3,8.3E1,7.8E2,7.5E1,3.1E1,7.5E1,2.37E2,1.14E2,2.1E2,1.7E1,4.05E2,7.3E1,1.105E3,9.55E2,2.59E2,2.5E1,1.93E2,4.78E2,1.129E3,8.5E1,8E0,8.7E1,8.5E1,1.1E1,8.3E1,5E0,1.93E2,1.97E2,2.46E2,5.3E1,9.9E1,2.84E2,2.09E2,1.79E2,1.29E2,1E1,4.9E1,4.9E1,1.7E1,1.14E2,3.8E1,6.9E1,1E0,3.2E1,6.5E1,5.7E1,6E0,2.74E2,2E0,7.2E1,2.1E1,1E0],"tree_param":{"num_deleted":"0","num_feature":"8","num_nodes":"127","size_leaf_vector":"1"}},{"base_weights":[-5.076439E-3,-2.6876932E-1,9.314428E-1,-5.258245E-1,2.0697737E-2,6.0781425E-1,1.5536948E0,-1.1495269E-1,-5.9829617E-1,6.8079376E-1,-1.3747482E-1,1.1789594E0,3.99249E-1,1.2161036E0,1.9033464E0,3.402307E-2,-6.00651E-1,-4.334435E-1,-7.5488E-1,7.7637583E-1,-2.773862E-1,4.1437503E-2,-2.7545393E-1,1.2440858E0,1.9593965E-1,5.784801E-1,2.0344566E-1,1.4560401E0,9.116182E-1,1.7227898E0,2.0943773E0,-3.124477E-1,2.2594893E-1,-4.38239E-1,-7.0699793E-1,-5.8939534E-1,-3.244894E-1,-9.030338E-1,-6.0782564E-1,1.0927385E0,5.935054E-1,-8.5441194E-2,-4.5037073E-1,1.5546982E-1,-3.16774E-1,-4.1318077E-1,-1.829787E-1,1.0688568E0,1.4719688E0,2.8122404E-1,-3.3789776E-2,4.0697724E-1,8.111857E-1,5.3083E-2,3.7934425E-1,1.5896113E0,9.741386E-1,7.2952986E-1,1.0707443E0,1.8943394E0,1.3616529E0,-2.6975518E-1,2.1265266E0,-2.5316232E-3,-5.2207984E-2,-8.3398335E-3,4.2133417E-2,-7.638192E-2,-3.1492677E-2,-6.2319137E-2,-8.485556E-2,-2.2011353E-2,-7.517218E-2,-2.211258E-2,-4.866631E-2,-4.3724008E-2,-9.340845E-2,-8.834893E-2,-5.0997593E-2,6.7278124E-2,1.2680046E-1,3.6695443E-2,8.154097E-2,-2.8092524E-2,8.8259755E-3,-4.92482E-2,3.0334724E-2,-2.6207718E-3,3.437483E-2,-1.5927993E-2,-4.9547564E-2,-2.6607264E-2,-5.127892E-2,-5.4748803E-3,-2.7566612E-2,1.8603541E-1,9.960939E-2,1.63095E-1,1.14670955E-1,3.8751956E-2,-3.0649835E-2,4.8150323E-2,4.204394E-3,7.278303E-2,1.1264391E-1,9.925694E-2,3.9887126E-3,4.3085523E-2,-8.162146E-3,1.6791163E-1,9.897541E-2,1.969173E-2,1.0511457E-1,1.1132504E-1,6.139622E-2,1.2409399E-1,8.997621E-2,1.3199659E-1,1.9746815E-1,9.696307E-2,1.4583513E-1,-5.101766E-2,2.2575451E-2,2.1362339E-1,6.831559E-2],"categories":[],"categories_nodes":[],"categories_segments":[],"categories_sizes":[],"default_left":[0,0,0,0,0,0,0,0,0,0,0,0,0,0,0,0,0,0,0,0,0,0,0,0,0,0,0,0,0,0,0,0,0,0,0,0,0,0,0,0,0,0,0,0,0,0,0,0,0,0,0,0,0,0,0,0,0,0,0,0,0,0,0,0,0,0,0,0,0,0,0,0,0,0,0,0,0,0,0,0,0,0,0,0,0,0,0,0,0,0,0,0,0,0,0,0,0,0,0,0,0,0,0,0,0,0,0,0,0,0,0,0,0,0,0,0,0,0,0,0,0,0,0,0,0],"id":3,"left_children":[1,3,5,7,9,11,13,15,17,19,21,23,25,27,29,31,33,35,37,39,41,43,45,47,49,51,53,55,57,59,61,63,65,67,69,71,73,75,77,79,81,83,85,87,89,91,93,95,97,99,-1,101,103,105,107,109,111,113,115,117,119,121,123,-1,-1,-1,-1,-1,-1,-1,-1,-1,-1,-1,-1,-1,-1,-1,-1,-1,-1,-1,-1,-1,-1,-1,-1,-1,-1,-1,-1,-1,-1,-1,-1,-1,-1,-1,-1,-1,-1,-1,-1,-1,-1,-1,-1,-1,-1,-1,-1,-1,-1,-1,-1,-1,-1,-1,-1,-1,-1,-1,-1,-1,-1],"loss_changes":[3.2709019E3,7.69028E2,5.8506714E2,1.6292822E2,5.0773056E2,2.2776514E2,1.1513452E2,5.9498116E1,1.1978186E2,8.6305084E1,9.685521E1,3.253479E1,4.9189453E1,3.5858765E1,1.3189331E1,4.196352E1,3.023674E0,3.83627E1,5.1412354E1,4.8816162E1,2.8170223E0,6.985795E1,2.8135345E1,1.7593872E1,1.5974488E0,2.892366E1,1.7779757E1,1.6667664E1,5.796173E0,1.3280518E1,1.8206726E1,1.3529976E1,2.4574543E1,2.9311476E0,8.3548355E-1,5.5702515E1,2.2321106E1,1.6744995E1,3.1917786E1,2.211142E1,2.7049103E1,1.4509366E0,1.577692E0,4.4374146E1,1.1544739E1,1.2890259E1,1.5756695E1,1.3984619E1,8.782043E0,1.9304693E0,0E0,1.1511299E1,7.326355E0,4.473043E0,7.3960495E0,1.0149963E1,3.6235085E0,4.1501923E0,2.346405E0,5.284485E0,1.8460083E0,5.916991E-1,1.7492676E0,0E0,0E0,0E0,0E0,0E0,0E0,0E0,0E0,0E0,0E0,0E0,0E0,0E0,0E0,0E0,0E0,0E0,0E0,0E0,0E0,0E0,0E0,0E0,0E0,0E0,0E0,0E0,0E0,0E0,0E0,0E0,0E0,0E0,0E0,0E0,0E0,0E0,0E0,0E0,0E0,0E0,0E0,0E0,0E0,0E0,0E0,0E0,0E0,0E0,0E0,0E0,0E0,0E0,0E0,0E0,0E0,0E0,0E0,0E0,0E0,0E0,0E0],"parents":[2147483647,0,0,1,1,2,2,3,3,4,4,5,5,6,6,7,7,8,8,9,9,10,10,11,11,12,12,13,13,14,14,15,15,16,16,17,17,18,18,19,19,20,20,21,21,22,22,23,23,24,24,25,25,26,26,27,27,28,28,29,29,30,30,31,31,32,32,33,33,34,34,35,35,36,36,37,37,38,38,39,39,40,40,41,41,42,42,43,43,44,44,45,45,46,46,47,47,48,48,49,49,51,51,52,52,53,53,54,54,55,55,56,56,57,57,58,58,59,59,60,60,61,61,62,62],"right_children":[2,4,6,8,10,12,14,16,18,20,22,24,26,28,30,32,34,36,38,40,42,44,46,48,50,52,54,56,58,60,62,64,66,68,70,72,74,76,78,80,82,84,86,88,90,92,94,96,98,100,-1,102,104,106,108,110,112,114,116,118,120,122,124,-1,-1,-1,-1,-1,-1,-1,-1,-1,-1,-1,-1,-1,-1,-1,-1,-1,-1,-1,-1,-1,-1,-1,-1,-1,-1,-1,-1,-1,-1,-1,-1,-1,-1,-1,-1,-1,-1,-1,-1,-1,-1,-1,-1,-1,-1,-1,-1,-1,-1,-1,-1,-1,-1,-1,-1,-1,-1,-1,-1,-1,-1],"split_conditions":[5E0,3.1875E0,6.5891E0,2.1589403E0,2.3019416E0,2.5502794E0,7.8287E0,3.793E1,3.451E1,3.799E1,2.8421926E0,3.796E1,3.0298102E0,2.909091E0,9.281E0,2.2467E0,3.854E1,2.2206E0,2.3687E0,1.9455128E0,3.855E1,3.79E1,3.8158E0,5.6345E0,2.511236E0,5.7214E0,5.6762E0,3.758E1,7.0568E0,3.0512822E0,4.805646E0,3.613924E0,3.399E1,1.0321429E0,3.904E1,3.517691E0,3.4362416E0,3.554517E0,3.683E1,3.393E1,3.8E0,3.816E1,1.8793522E1,4.0282E0,3.857E1,4.9620852E0,3.1328905E0,1.7884297E0,2.4354005E0,3.87E1,-3.3789776E-2,3.792E1,1.0683297E0,1.03E2,3.776E1,7.4748745E0,3.771E1,3.0227273E0,3.187773E0,3.369E1,3.373E1,1.05144E1,3.799E1,-2.5316232E-3,-5.2207984E-2,-8.3398335E-3,4.2133417E-2,-7.638192E-2,-3.1492677E-2,-6.2319137E-2,-8.485556E-2,-2.2011353E-2,-7.517218E-2,-2.211258E-2,-4.866631E-2,-4.3724008E-2,-9.340845E-2,-8.834893E-2,-5.0997593E-2,6.7278124E-2,1.2680046E-1,3.6695443E-2,8.154097E-2,-2.8092524E-2,8.8259755E-3,-4.92482E-2,3.0334724E-2,-2.6207718E-3,3.437483E-2,-1.5927993E-2,-4.9547564E-2,-2.6607264E-2,-5.127892E-2,-5.4748803E-3,-2.7566612E-2,1.8603541E-1,9.960939E-2,1.63095E-1,1.14670955E-1,3.8751956E-2,-3.0649835E-2,4.8150323E-2,4.204394E-3,7.278303E-2,1.1264391E-1,9.925694E-2,3.9887126E-3,4.3085523E-2,-8.162146E-3,1.6791163E-1,9.897541E-2,1.969173E-2,1.0511457E-1,1.1132504E-1,6.139622E-2,1.2409399E-1,8.997621E-2,1.3199659E-1,1.9746815E-1,9.696307E-2,1.4583513E-1,-5.101766E-2,2.2575451E-2,2.1362339E-1,6.831559E-2],"split_indices":[0,0,0,5,5,5,0,6,6,6,5,6,5,5,0,0,6,0,0,5,6,6,0,0,5,0,0,6,0,5,2,2,6,3,6,2,5,2,6,6,0,6,2,0,6,2,5,5,5,6,0,6,3,4,6,2,6,5,5,6,6,0,6,0,0,0,0,0,0,0,0,0,0,0,0,0,0,0,0,0,0,0,0,0,0,0,0,0,0,0,0,0,0,0,0,0,0,0,0,0,0,0,0,0,0,0,0,0,0,0,0,0,0,0,0,0,0,0,0,0,0,0,0,0,0],"split_type":[0,0,0,0,0,0,0,0,0,0,0,0,0,0,0,0,0,0,0,0,0,0,0,0,0,0,0,0,0,0,0,0,0,0,0,0,0,0,0,0,0,0,0,0,0,0,0,0,0,0,0,0,0,0,0,0,0,0,0,0,0,0,0,0,0,0,0,0,0,0,0,0,0,0,0,0,0,0,0,0,0,0,0,0,0,0,0,0,0,0,0,0,0,0,0,0,0,0,0,0,0,0,0,0,0,0,0,0,0,0,0,0,0,0,0,0,0,0,0,0,0,0,0,0,0],"sum_hessian":[1.3243E4,1.0334E4,2.909E3,5.473E3,4.861E3,1.915E3,9.94E2,8.21E2,4.652E3,9.39E2,3.922E3,5.11E2,1.404E3,5.08E2,4.86E2,6.29E2,1.92E2,2.268E3,2.384E3,8.54E2,8.5E1,1.708E3,2.214E3,4.79E2,3.2E1,7.32E2,6.72E2,2.82E2,2.26E2,2.55E2,2.31E2,2.24E2,4.05E2,7.8E1,1.14E2,9.31E2,1.337E3,1.185E3,1.199E3,3.11E2,5.43E2,4.1E1,4.4E1,1.296E3,4.12E2,8.88E2,1.326E3,2.74E2,2.05E2,2.8E1,4E0,4.23E2,3.09E2,3.63E2,3.09E2,2.19E2,6.3E1,1.08E2,1.18E2,1.7E2,8.5E1,3E0,2.28E2,9.5E1,1.29E2,1.57E2,2.48E2,2E1,5.8E1,7.5E1,3.9E1,2.85E2,6.46E2,8.18E2,5.19E2,7.5E1,1.11E3,3.12E2,8.87E2,9.3E1,2.18E2,2.7E2,2.73E2,1.9E1,2.2E1,4.2E1,2E0,6.6E2,6.36E2,2.2E2,1.92E2,3.6E2,5.28E2,5.57E2,7.69E2,2.1E1,2.53E2,1.35E2,7E1,2.4E1,4E0,3.51E2,7.2E1,2.47E2,6.2E1,4E0,3.59E2,2.78E2,3.1E1,1.89E2,3E1,6E0,5.7E1,2.3E1,8.5E1,5.6E1,6.2E1,2.3E1,1.47E2,1.9E1,6.6E1,2E0,1E0,2.26E2,2E0],"tree_param":{"num_deleted":"0","num_feature":"8","num_nodes":"125","size_leaf_vector":"1"}},{"base_weights":[1.8844431E-3,-2.317083E-1,8.717865E-1,-5.3669894E-1,-2.4267344E-2,6.015303E-1,1.4827152E0,-2.531292E-1,-6.515392E-1,4.190413E-1,-8.8600874E-2,4.569792E-1,7.8998756E-1,1.1636752E0,1.7157394E0,-7.573355E-2,-4.3694595E-1,-7.752437E-1,-5.293704E-1,9.291821E-1,-6.0643993E-2,5.1999204E-2,-3.0561548E-1,5.2841157E-1,6.933516E-2,8.820765E-1,4.6861252E-1,9.0864235E-1,1.3264757E0,2.2584535E-1,1.7336684E0,1.5270482E-1,-3.2714623E-1,-3.6056578E-1,-7.247756E-1,-6.441329E-1,-8.2398033E-1,-2.7682343E-1,-6.097051E-1,7.895306E-1,1.8786566E0,1.3935031E-1,-6.802158E-1,5.63532E-1,-1.177021E-1,2.41295E-2,-5.755302E-1,6.109068E-1,1.7952979E-2,2.4224897E-1,-2.7470663E-1,9.436907E-1,3.0221364E-1,6.608109E-1,1.2477753E-1,1.5228282E-1,9.6959513E-1,1.4384454E0,9.170095E-1,8.631343E-1,-2.0169708E-1,1.7998525E0,1.3587447E0,5.405218E-2,4.7988584E-3,2.2627988E-3,-8.594748E-2,-3.999826E-2,1.9514685E-2,-6.763393E-2,-1.0863216E-1,8.4856175E-2,-6.6858366E-2,-7.476061E-2,-9.608181E-2,9.162424E-2,-3.0946722E-2,-4.793112E-2,-6.767764E-2,1.2166367E-1,6.912046E-2,2.0868032E-1,7.3830485E-3,3.1374466E-2,-1.2055218E-2,-5.28345E-2,-7.742241E-2,8.8674866E-2,2.1084368E-2,2.8324763E-3,-3.3945896E-2,3.542654E-2,-2.8600648E-2,-4.3219123E-2,-8.884417E-2,5.1545512E-2,8.609117E-2,6.558744E-2,-1.32669555E-2,5.53917E-2,-1.2007817E-2,6.775826E-2,-3.0330086E-2,1.6587166E-1,8.912731E-2,8.54545E-2,8.425239E-3,8.429203E-2,2.9820224E-2,2.6777625E-2,-3.2838188E-2,-2.0362036E-2,6.9127135E-2,1.075443E-1,5.985971E-2,1.591246E-1,9.7524345E-2,1.3297836E-1,6.2112268E-2,2.2707988E-2,1.0676216E-1,1.4000297E-2,-4.7616478E-2,1.8201046E-1,6.952778E-2,-6.335719E-2,1.393296E-1],"categories":[],"categories_nodes":[],"categories_segments":[],"categories_sizes":[],"default_left":[0,0,0,0,0,0,0,0,0,0,0,0,0,0,0,0,0,0,0,0,0,0,0,0,0,0,0,0,0,0,0,0,0,0,0,0,0,0,0,0,0,0,0,0,0,0,0,0,0,0,0,0,0,0,0,0,0,0,0,0,0,0,0,0,0,0,0,0,0,0,0,0,0,0,0,0,0,0,0,0,0,0,0,0,0,0,0,0,0,0,0,0,0,0,0,0,0,0,0,0,0,0,0,0,0,0,0,0,0,0,0,0,0,0,0,0,0,0,0,0,0,0,0,0,0,0,0],"id":4,"left_children":[1,3,5,7,9,11,13,15,17,19,21,23,25,27,29,31,33,35,37,39,41,43,45,47,49,51,53,55,57,59,61,63,65,67,69,71,73,75,77,79,81,83,85,87,89,91,93,95,97,99,101,103,105,107,109,111,113,115,117,119,121,123,125,-1,-1,-1,-1,-1,-1,-1,-1,-1,-1,-1,-1,-1,-1,-1,-1,-1,-1,-1,-1,-1,-1,-1,-1,-1,-1,-1,-1,-1,-1,-1,-1,-1,-1,-1,-1,-1,-1,-1,-1,-1,-1,-1,-1,-1,-1,-1,-1,-1,-1,-1,-1,-1,-1,-1,-1,-1,-1,-1,-1,-1,-1,-1,-1],"loss_changes":[2.6782117E3,6.5733673E2,4.5975732E2,1.3680432E2,1.7643091E2,5.2378967E1,6.1567505E1,3.9553375E1,4.4822266E1,1.9190665E2,1.648432E2,3.036734E1,2.4416931E1,1.3907776E1,1.2750977E1,3.560055E1,1.2841423E1,8.958313E0,3.0446228E1,4.8903076E1,5.0278675E1,2.84709E2,1.8905627E2,3.902539E1,1.0298754E1,2.2973572E1,1.24075165E1,6.5371704E0,8.767456E0,2.0813682E0,9.614014E0,1.317255E1,5.4946915E1,1.0438854E1,1.4367676E0,1.5421799E1,1.05581665E1,1.4537855E1,9.680664E0,1.3143616E1,1.7878021E1,1.3952759E1,1.0043755E0,9.294675E1,7.976761E1,9.8085686E1,5.2003662E1,1.8599213E1,1.2578108E1,1.30529785E1,1.7848511E0,2.0559875E1,7.63276E0,7.7388077E0,4.5592165E0,2.44269E0,4.6183395E0,1.0551086E1,5.2807617E0,1.4775968E-1,5.3559256E-1,7.90625E0,6.183197E0,0E0,0E0,0E0,0E0,0E0,0E0,0E0,0E0,0E0,0E0,0E0,0E0,0E0,0E0,0E0,0E0,0E0,0E0,0E0,0E0,0E0,0E0,0E0,0E0,0E0,0E0,0E0,0E0,0E0,0E0,0E0,0E0,0E0,0E0,0E0,0E0,0E0,0E0,0E0,0E0,0E0,0E0,0E0,0E0,0E0,0E0,0E0,0E0,0E0,0E0,0E0,0E0,0E0,0E0,0E0,0E0,0E0,0E0,0E0,0E0,0E0,0E0,0E0,0E0],"parents":[2147483647,0,0,1,1,2,2,3,3,4,4,5,5,6,6,7,7,8,8,9,9,10,10,11,11,12,12,13,13,14,14,15,15,16,16,17,17,18,18,19,19,20,20,21,21,22,22,23,23,24,24,25,25,26,26,27,27,28,28,29,29,30,30,31,31,32,32,33,33,34,34,35,35,36,36,37,37,38,38,39,39,40,40,41,41,42,42,43,43,44,44,45,45,46,46,47,47,48,48,49,49,50,50,51,51,52,52,53,53,54,54,55,55,56,56,57,57,58,58,59,59,60,60,61,61,62,62],"right_children":[2,4,6,8,10,12,14,16,18,20,22,24,26,28,30,32,34,36,38,40,42,44,46,48,50,52,54,56,58,60,62,64,66,68,70,72,74,76,78,80,82,84,86,88,90,92,94,96,98,100,102,104,106,108,110,112,114,116,118,120,122,124,126,-1,-1,-1,-1,-1,-1,-1,-1,-1,-1,-1,-1,-1,-1,-1,-1,-1,-1,-1,-1,-1,-1,-1,-1,-1,-1,-1,-1,-1,-1,-1,-1,-1,-1,-1,-1,-1,-1,-1,-1,-1,-1,-1,-1,-1,-1,-1,-1,-1,-1,-1,-1,-1,-1,-1,-1,-1,-1,-1,-1,-1,-1,-1,-1],"split_conditions":[5.0736E0,2.8378E0,6.828E0,3.9149425E0,-1.2224E2,5.826E0,7.8287E0,-1.1827E2,2.2206E0,3.782E1,3.451E1,-1.1775E2,-1.1787E2,1.0120482E0,4.805646E0,3.451E1,-1.1719E2,3.406E1,4.4259543E0,3.779E1,3.868E1,-1.1831E2,-1.2154E2,3.794E1,3.386E1,3.796E1,3.375E1,4.23E2,-1.1784E2,9.281E0,-1.1782E2,-1.1844E2,-1.2171E2,3.413E1,-1.1689E2,-1.1837E2,-1.1985E2,-1.2241E2,3.529E1,3.761E1,-1.2225E2,-1.2236E2,3.941E1,3.417E1,-1.1778E2,3.758E1,-1.1996E2,1.0621669E0,-1.2246E2,-1.1715E2,1.03E2,-1.2232E2,-1.2248E2,-1.1719E2,-1.174E2,9.5679015E-1,-1.1794E2,3.768E1,3.355E1,8.1988E0,-1.2236E2,3.799E1,6.9E1,5.405218E-2,4.7988584E-3,2.2627988E-3,-8.594748E-2,-3.999826E-2,1.9514685E-2,-6.763393E-2,-1.0863216E-1,8.4856175E-2,-6.6858366E-2,-7.476061E-2,-9.608181E-2,9.162424E-2,-3.0946722E-2,-4.793112E-2,-6.767764E-2,1.2166367E-1,6.912046E-2,2.0868032E-1,7.3830485E-3,3.1374466E-2,-1.2055218E-2,-5.28345E-2,-7.742241E-2,8.8674866E-2,2.1084368E-2,2.8324763E-3,-3.3945896E-2,3.542654E-2,-2.8600648E-2,-4.3219123E-2,-8.884417E-2,5.1545512E-2,8.609117E-2,6.558744E-2,-1.32669555E-2,5.53917E-2,-1.2007817E-2,6.775826E-2,-3.0330086E-2,1.6587166E-1,8.912731E-2,8.54545E-2,8.425239E-3,8.429203E-2,2.9820224E-2,2.6777625E-2,-3.2838188E-2,-2.0362036E-2,6.9127135E-2,1.075443E-1,5.985971E-2,1.591246E-1,9.7524345E-2,1.3297836E-1,6.2112268E-2,2.2707988E-2,1.0676216E-1,1.4000297E-2,-4.7616478E-2,1.8201046E-1,6.952778E-2,-6.335719E-2,1.393296E-1],"split_indices":[0,0,0,2,7,0,0,7,0,6,6,7,7,3,2,6,7,6,2,6,6,7,7,6,6,6,6,4,7,0,7,7,7,6,7,7,7,7,6,6,7,7,6,6,7,6,7,3,7,7,4,7,7,7,7,3,7,6,6,0,7,6,4,0,0,0,0,0,0,0,0,0,0,0,0,0,0,0,0,0,0,0,0,0,0,0,0,0,0,0,0,0,0,0,0,0,0,0,0,0,0,0,0,0,0,0,0,0,0,0,0,0,0,0,0,0,0,0,0,0,0,0,0,0,0,0,0],"split_type":[0,0,0,0,0,0,0,0,0,0,0,0,0,0,0,0,0,0,0,0,0,0,0,0,0,0,0,0,0,0,0,0,0,0,0,0,0,0,0,0,0,0,0,0,0,0,0,0,0,0,0,0,0,0,0,0,0,0,0,0,0,0,0,0,0,0,0,0,0,0,0,0,0,0,0,0,0,0,0,0,0,0,0,0,0,0,0,0,0,0,0,0,0,0,0,0,0,0,0,0,0,0,0,0,0,0,0,0,0,0,0,0,0,0,0,0,0,0,0,0,0,0,0,0,0,0,0],"sum_hessian":[1.3178E4,1.0389E4,2.789E3,4.205E3,6.184E3,1.935E3,8.54E2,1.213E3,2.992E3,7.83E2,5.401E3,1.097E3,8.38E2,3.63E2,4.91E2,6.18E2,5.95E2,1.484E3,1.508E3,3.79E2,4.04E2,3.278E3,2.123E3,9.26E2,1.71E2,6.5E2,1.88E2,1.44E2,2.19E2,6E0,4.85E2,3.24E2,2.94E2,4.72E2,1.23E2,4.06E2,1.078E3,3.65E2,1.143E3,3.32E2,4.7E1,3.06E2,9.8E1,8.16E2,2.462E3,9.56E2,1.167E3,7.97E2,1.29E2,1.14E2,5.7E1,5.87E2,6.3E1,1.2E2,6.8E1,1.1E1,1.33E2,1.7E2,4.9E1,2E0,4E0,4.09E2,7.6E1,6.8E1,2.56E2,1.78E2,1.16E2,4.41E2,3.1E1,1.11E2,1.2E1,6E0,4E2,6.96E2,3.82E2,9E0,3.56E2,3.91E2,7.52E2,6E1,2.72E2,4.2E1,5E0,1.83E2,1.23E2,4E1,5.8E1,4.25E2,3.91E2,1.485E3,9.77E2,4.63E2,4.93E2,8.02E2,3.65E2,5.79E2,2.18E2,2.4E1,1.05E2,6.1E1,5.3E1,1E0,5.6E1,3.8E1,5.49E2,1.7E1,4.6E1,7.9E1,4.1E1,5.2E1,1.6E1,7E0,4E0,1.02E2,3.1E1,1.26E2,4.4E1,1.9E1,3E1,1E0,1E0,2E0,2E0,4.01E2,8E0,1E0,7.5E1],"tree_param":{"num_deleted":"0","num_feature":"8","num_nodes":"127","size_leaf_vector":"1"}},{"base_weights":[6.633949E-3,-1.04769E-1,5.050733E-1,1.8829237E-1,-2.9336533E-1,6.3858086E-1,-3.1552055E-1,-1.2127104E-1,3.3062047E-1,-2.3801333E-1,-6.285972E-1,4.6040162E-1,1.0949683E0,1.8922488E-1,-3.8154814E-1,-7.266656E-2,-5.506719E-1,7.100845E-1,1.9645539E-1,-9.5367365E-2,-3.5258085E-1,-7.171855E-1,-4.054421E-1,7.950158E-1,2.5315842E-1,8.274765E-1,1.3833879E0,-1.2712947E-1,1.698771E-1,-4.2075282E-1,3.9400506E-1,-2.0671341E-1,1.2174007E-1,-4.2942333E-1,-9.647692E-1,1.3913876E0,6.0948735E-1,7.777199E-2,4.7058567E-1,-2.6621786E-1,1.510136E-1,-1.0563981E-1,-4.0422776E-1,-6.7438847E-1,-1.0369081E0,-3.61598E-1,-9.6099876E-2,4.409042E-1,9.7888607E-1,3.5792983E-1,-1.7012727E-1,6.4562273E-1,1.0821437E0,1.4342577E0,3.144148E-1,-7.381259E-2,8.925887E-2,-4.3326056E-1,1.5782303E-1,1.3040237E0,-1.9140664E-1,2.2863864E-3,-4.1253895E-2,6.9520764E-2,-3.944497E-3,-4.4900686E-2,3.9914105E-2,-9.8598704E-2,-1.7472643E-2,5.1776567E-3,1.7170393E-1,1.1529472E-2,8.8531494E-2,-7.4803145E-3,2.620474E-2,2.7243827E-2,7.9067774E-2,-4.2414335E-3,-5.3998876E-2,5.0688656E-3,3.680759E-2,-2.1484757E-2,5.0632777E-3,-7.060382E-2,-2.8142417E-2,-5.615299E-2,-7.899808E-2,-1.2190896E-2,-1.0473436E-1,-2.2479875E-2,-4.6922337E-2,5.872044E-2,7.764163E-3,1.02088645E-1,-1.8304301E-2,3.0415526E-2,1.3786934E-1,-2.2860257E-2,8.760508E-2,4.8955858E-2,9.765419E-2,1.2435347E-1,7.744305E-2,1.4764069E-1,3.1911213E-2,6.484927E-2,-2.3910454E-2,7.9926684E-2,-7.6163793E-3,-3.886947E-2,-1.0390705E-1,-4.770112E-2,1.7556329E-1,-7.866156E-2,3.3650193E-2],"categories":[],"categories_nodes":[],"categories_segments":[],"categories_sizes":[],"default_left":[0,0,0,0,0,0,0,0,0,0,0,0,0,0,0,0,0,0,0,0,0,0,0,0,0,0,0,0,0,0,0,0,0,0,0,0,0,0,0,0,0,0,0,0,0,0,0,0,0,0,0,0,0,0,0,0,0,0,0,0,0,0,0,0,0,0,0,0,0,0,0,0,0,0,0,0,0,0,0,0,0,0,0,0,0,0,0,0,0,0,0,0,0,0,0,0,0,0,0,0,0,0,0,0,0,0,0,0,0,0,0,0,0,0,0],"id":5,"left_children":[1,3,5,7,9,11,13,15,17,19,21,23,25,27,29,31,33,35,37,39,41,43,45,47,49,51,53,55,-1,57,59,61,63,65,67,69,71,73,75,77,79,81,83,85,87,89,-1,91,93,95,97,99,101,103,105,-1,107,109,-1,111,113,-1,-1,-1,-1,-1,-1,-1,-1,-1,-1,-1,-1,-1,-1,-1,-1,-1,-1,-1,-1,-1,-1,-1,-1,-1,-1,-1,-1,-1,-1,-1,-1,-1,-1,-1,-1,-1,-1,-1,-1,-1,-1,-1,-1,-1,-1,-1,-1,-1,-1,-1,-1,-1,-1],"loss_changes":[7.371265E2,5.99738E2,2.6587354E2,1.8724922E2,1.2235553E2,1.6912677E2,1.14034195E1,2.7905983E1,1.4806189E2,9.259619E1,1.8193176E1,1.03957214E2,4.3987976E1,1.9318024E1,9.31778E0,3.1400915E1,6.4140854E0,5.1240204E1,6.99781E1,1.0637042E2,4.0042297E1,8.441101E0,6.1804085E0,3.6941864E1,4.1260406E1,1.347287E1,1.4774963E1,4.5611086E0,0E0,7.859577E0,8.240632E0,3.370073E1,4.5505142E1,1.9154224E0,3.3061028E-1,4.2227036E1,9.040909E1,4.227772E1,4.101111E1,9.139326E1,2.2520292E1,9.311946E0,9.612906E1,7.279358E0,6.075516E-1,3.5752869E0,0E0,1.0477192E1,1.8585022E1,4.0474556E1,1.151775E1,8.869606E0,5.294388E0,1.2078552E1,2.7439175E0,0E0,3.1146116E0,7.3176727E0,0E0,5.6634474E0,3.4068568E0,0E0,0E0,0E0,0E0,0E0,0E0,0E0,0E0,0E0,0E0,0E0,0E0,0E0,0E0,0E0,0E0,0E0,0E0,0E0,0E0,0E0,0E0,0E0,0E0,0E0,0E0,0E0,0E0,0E0,0E0,0E0,0E0,0E0,0E0,0E0,0E0,0E0,0E0,0E0,0E0,0E0,0E0,0E0,0E0,0E0,0E0,0E0,0E0,0E0,0E0,0E0,0E0,0E0,0E0],"parents":[2147483647,0,0,1,1,2,2,3,3,4,4,5,5,6,6,7,7,8,8,9,9,10,10,11,11,12,12,13,13,14,14,15,15,16,16,17,17,18,18,19,19,20,20,21,21,22,22,23,23,24,24,25,25,26,26,27,27,29,29,30,30,31,31,32,32,33,33,34,34,35,35,36,36,37,37,38,38,39,39,40,40,41,41,42,42,43,43,44,44,45,45,47,47,48,48,49,49,50,50,51,51,52,52,53,53,54,54,56,56,57,57,59,59,60,60],"right_children":[2,4,6,8,10,12,14,16,18,20,22,24,26,28,30,32,34,36,38,40,42,44,46,48,50,52,54,56,-1,58,60,62,64,66,68,70,72,74,76,78,80,82,84,86,88,90,-1,92,94,96,98,100,102,104,106,-1,108,110,-1,112,114,-1,-1,-1,-1,-1,-1,-1,-1,-1,-1,-1,-1,-1,-1,-1,-1,-1,-1,-1,-1,-1,-1,-1,-1,-1,-1,-1,-1,-1,-1,-1,-1,-1,-1,-1,-1,-1,-1,-1,-1,-1,-1,-1,-1,-1,-1,-1,-1,-1,-1,-1,-1,-1,-1],"split_conditions":[6.3791666E0,2.625E0,1.4157304E0,2.2E1,-1.1757E2,7.409894E0,1.9274874E0,-1.1715E2,2.048583E0,3.1018634E0,5.6778593E0,2.7748537E0,2.2E1,2.7E1,4.247093E0,-1.1884E2,-1.1667E2,-1.2241E2,5.4594593E0,-1.1884E2,-1.2166E2,-1.1643E2,-1.1667E2,2.2E1,1.1025641E0,8E0,3.3522012E0,1.03E2,1.698771E-1,2.5636364E1,1.7E1,-1.2185E2,-1.1836E2,1.4615384E0,2.546E3,-1.2251E2,-1.1892E2,-1.1861E2,-1.187E2,-1.2162E2,5.577682E0,1.548E3,-1.1892E2,2.7E1,1.03E2,3.0374532E0,-9.6099876E-2,1.137255E0,-1.1717E2,3.7E1,7.345936E0,1.7E1,1.1211072E0,1.2252427E0,-1.1794E2,-7.381259E-2,1E1,-1.1617E2,1.5782303E-1,8E0,4.7E1,2.2863864E-3,-4.1253895E-2,6.9520764E-2,-3.944497E-3,-4.4900686E-2,3.9914105E-2,-9.8598704E-2,-1.7472643E-2,5.1776567E-3,1.7170393E-1,1.1529472E-2,8.8531494E-2,-7.4803145E-3,2.620474E-2,2.7243827E-2,7.9067774E-2,-4.2414335E-3,-5.3998876E-2,5.0688656E-3,3.680759E-2,-2.1484757E-2,5.0632777E-3,-7.060382E-2,-2.8142417E-2,-5.615299E-2,-7.899808E-2,-1.2190896E-2,-1.0473436E-1,-2.2479875E-2,-4.6922337E-2,5.872044E-2,7.764163E-3,1.02088645E-1,-1.8304301E-2,3.0415526E-2,1.3786934E-1,-2.2860257E-2,8.760508E-2,4.8955858E-2,9.765419E-2,1.2435347E-1,7.744305E-2,1.4764069E-1,3.1911213E-2,6.484927E-2,-2.3910454E-2,7.9926684E-2,-7.6163793E-3,-3.886947E-2,-1.0390705E-1,-4.770112E-2,1.7556329E-1,-7.866156E-2,3.3650193E-2],"split_indices":[2,5,3,1,7,2,5,7,5,5,2,5,1,1,5,7,7,7,2,7,7,7,7,1,3,2,5,4,0,3,1,7,7,3,4,7,7,7,7,7,2,4,7,1,4,5,0,3,7,1,2,1,3,3,7,0,1,7,0,2,1,0,0,0,0,0,0,0,0,0,0,0,0,0,0,0,0,0,0,0,0,0,0,0,0,0,0,0,0,0,0,0,0,0,0,0,0,0,0,0,0,0,0,0,0,0,0,0,0,0,0,0,0,0,0],"split_type":[0,0,0,0,0,0,0,0,0,0,0,0,0,0,0,0,0,0,0,0,0,0,0,0,0,0,0,0,0,0,0,0,0,0,0,0,0,0,0,0,0,0,0,0,0,0,0,0,0,0,0,0,0,0,0,0,0,0,0,0,0,0,0,0,0,0,0,0,0,0,0,0,0,0,0,0,0,0,0,0,0,0,0,0,0,0,0,0,0,0,0,0,0,0,0,0,0,0,0,0,0,0,0,0,0,0,0,0,0,0,0,0,0,0,0],"sum_hessian":[1.3273E4,1.0849E4,2.424E3,4.248E3,6.601E3,2.085E3,3.39E2,1.338E3,2.91E3,5.667E3,9.34E2,1.501E3,5.84E2,3.9E1,3E2,1.203E3,1.35E2,7.59E2,2.151E3,2.525E3,3.142E3,6.67E2,2.67E2,5.73E2,9.28E2,3.05E2,2.79E2,3.3E1,6E0,2.86E2,1.4E1,7.12E2,4.91E2,1.06E2,2.9E1,9.6E1,6.63E2,1.502E3,6.49E2,1.491E3,1.034E3,5.44E2,2.598E3,5.91E2,7.6E1,2.49E2,1.8E1,1.97E2,3.76E2,7.44E2,1.84E2,1.8E2,1.25E2,2.66E2,1.3E1,8E0,2.5E1,2.85E2,1E0,5E0,9E0,3.37E2,3.75E2,1.07E2,3.84E2,1.04E2,2E0,2.8E1,1E0,1.9E1,7.7E1,2.38E2,4.25E2,8.22E2,6.8E2,4.02E2,2.47E2,8.21E2,6.7E2,7.08E2,3.26E2,3.2E2,2.24E2,7.5E2,1.848E3,3.02E2,2.89E2,1E0,7.5E1,1.11E2,1.38E2,1.4E2,5.7E1,3.63E2,1.3E1,7.08E2,3.6E1,1.75E2,9E0,1.24E2,5.6E1,8E1,4.5E1,2.56E2,1E1,8E0,5E0,4E0,2.1E1,2.67E2,1.8E1,1E0,4E0,4E0,5E0],"tree_param":{"num_deleted":"0","num_feature":"8","num_nodes":"115","size_leaf_vector":"1"}},{"base_weights":[-4.1752746E-3,-2.441773E-1,5.9337926E-1,-4.6357298E-1,-7.6782465E-2,3.5159573E-1,1.1088115E0,-2.1086098E-1,-5.650386E-1,-1.2829019E-1,4.5297128E-1,2.62395E-1,7.798518E-1,8.934185E-1,1.4269398E0,-6.756688E-2,-3.542852E-1,-7.2071785E-1,-4.9417645E-1,6.573666E-3,-2.5171396E-1,9.615502E-1,1.6875155E-1,3.9731305E-2,3.6617494E-1,6.094713E-1,9.886526E-1,6.915715E-1,1.2565649E0,1.1854101E0,1.5257484E0,-2.1734305E-1,1.03853375E-1,-2.9137924E-1,-6.340198E-1,-7.2483677E-1,1.4993188E-1,-2.8922567E-1,-5.4868096E-1,1.4590724E-1,-1.5976363E-1,-4.576905E-1,-1.2600656E-1,-1.3920793E-1,1.0243379E0,-3.456361E-1,2.4575818E-1,-7.195802E-2,2.1472998E-1,2.5010842E-1,5.4859215E-1,9.399228E-1,5.116364E-1,-4.8507637E-1,1.0374874E0,1.092981E0,6.316827E-1,1.1547556E0,1.5769321E0,8.9070904E-1,1.4271314E0,5.4781485E-1,1.5598563E0,5.651107E-3,-4.9509536E-2,1.0469367E-1,5.6481967E-3,-1.1464935E-2,-3.344549E-2,-5.9521586E-2,-8.658314E-2,-5.9033185E-2,-7.499985E-2,5.3839218E-2,-3.253838E-2,9.8707445E-2,-5.512628E-2,-1.6495874E-3,4.465552E-2,-2.1214155E-2,-2.6714955E-3,-3.785261E-2,-5.231137E-2,-1.6971728E-2,1.6530253E-2,-3.230501E-2,2.1731779E-2,1.12481855E-1,6.721415E-2,-6.1859664E-2,-1.3788757E-2,3.1397361E-3,4.1500695E-2,3.3388857E-2,-9.8899035E-3,1.0280158E-2,4.9025282E-2,5.137973E-2,1.4189631E-2,1.5145521E-1,4.698203E-2,4.071049E-2,1.0219534E-1,-6.021283E-3,5.5695157E-2,-1.026887E-2,-9.606971E-2,4.4139277E-2,1.07498325E-1,2.10126E-2,1.207786E-1,5.9945285E-2,1.0630858E-1,1.17795326E-1,2.3736048E-3,3.8292658E-2,1.612109E-1,4.5445364E-2,9.6692584E-2,3.720721E-2,1.4500004E-1,9.985759E-2,-7.160413E-2,-3.2050695E-2,1.5665868E-1],"categories":[],"categories_nodes":[],"categories_segments":[],"categories_sizes":[],"default_left":[0,0,0,0,0,0,0,0,0,0,0,0,0,0,0,0,0,0,0,0,0,0,0,0,0,0,0,0,0,0,0,0,0,0,0,0,0,0,0,0,0,0,0,0,0,0,0,0,0,0,0,0,0,0,0,0,0,0,0,0,0,0,0,0,0,0,0,0,0,0,0,0,0,0,0,0,0,0,0,0,0,0,0,0,0,0,0,0,0,0,0,0,0,0,0,0,0,0,0,0,0,0,0,0,0,0,0,0,0,0,0,0,0,0,0,0,0,0,0,0,0,0,0,0,0],"id":6,"left_children":[1,3,5,7,9,11,13,15,17,19,21,23,25,27,29,31,33,35,37,39,41,43,45,47,49,51,53,55,57,59,61,63,65,67,69,71,-1,73,75,77,79,81,83,85,87,89,91,93,95,97,99,101,103,105,107,109,111,113,115,117,119,121,123,-1,-1,-1,-1,-1,-1,-1,-1,-1,-1,-1,-1,-1,-1,-1,-1,-1,-1,-1,-1,-1,-1,-1,-1,-1,-1,-1,-1,-1,-1,-1,-1,-1,-1,-1,-1,-1,-1,-1,-1,-1,-1,-1,-1,-1,-1,-1,-1,-1,-1,-1,-1,-1,-1,-1,-1,-1,-1,-1,-1,-1,-1],"loss_changes":[1.8863298E3,3.4459833E2,4.6931433E2,1.0401135E2,1.4533096E2,9.785675E1,8.1157715E1,2.391896E1,3.1602844E1,8.0781815E1,6.806445E1,4.91131E1,1.5121857E1,5.1907043E1,9.7421875E0,1.5016578E1,1.0056702E1,9.353027E0,2.2115784E1,5.3792492E1,6.555463E1,1.1822876E1,1.2126764E1,1.3247745E1,3.0562973E1,7.472206E0,1.4681198E1,1.0488144E1,6.5288086E0,9.057983E0,1.0486206E1,2.3759827E1,1.2137195E1,3.5929337E0,4.3813705E-1,2.6133423E0,0E0,1.2773666E1,6.785034E0,6.1674812E1,7.3673363E0,4.774002E0,2.0083046E1,7.25649E-1,4.906189E0,2.1829896E0,9.60125E0,4.559664E0,8.091052E0,2.5265583E1,4.2127365E1,1.9878616E0,5.008915E0,1.1744479E0,3.794571E0,5.726227E0,5.0216675E0,5.1669617E0,1.8607635E0,1.821579E0,1.3424988E0,8.121082E0,4.6531982E0,0E0,0E0,0E0,0E0,0E0,0E0,0E0,0E0,0E0,0E0,0E0,0E0,0E0,0E0,0E0,0E0,0E0,0E0,0E0,0E0,0E0,0E0,0E0,0E0,0E0,0E0,0E0,0E0,0E0,0E0,0E0,0E0,0E0,0E0,0E0,0E0,0E0,0E0,0E0,0E0,0E0,0E0,0E0,0E0,0E0,0E0,0E0,0E0,0E0,0E0,0E0,0E0,0E0,0E0,0E0,0E0,0E0,0E0,0E0,0E0,0E0,0E0],"parents":[2147483647,0,0,1,1,2,2,3,3,4,4,5,5,6,6,7,7,8,8,9,9,10,10,11,11,12,12,13,13,14,14,15,15,16,16,17,17,18,18,19,19,20,20,21,21,22,22,23,23,24,24,25,25,26,26,27,27,28,28,29,29,30,30,31,31,32,32,33,33,34,34,35,35,37,37,38,38,39,39,40,40,41,41,42,42,43,43,44,44,45,45,46,46,47,47,48,48,49,49,50,50,51,51,52,52,53,53,54,54,55,55,56,56,57,57,58,58,59,59,60,60,61,61,62,62],"right_children":[2,4,6,8,10,12,14,16,18,20,22,24,26,28,30,32,34,36,38,40,42,44,46,48,50,52,54,56,58,60,62,64,66,68,70,72,-1,74,76,78,80,82,84,86,88,90,92,94,96,98,100,102,104,106,108,110,112,114,116,118,120,122,124,-1,-1,-1,-1,-1,-1,-1,-1,-1,-1,-1,-1,-1,-1,-1,-1,-1,-1,-1,-1,-1,-1,-1,-1,-1,-1,-1,-1,-1,-1,-1,-1,-1,-1,-1,-1,-1,-1,-1,-1,-1,-1,-1,-1,-1,-1,-1,-1,-1,-1,-1,-1,-1,-1,-1,-1,-1,-1,-1,-1,-1,-1],"split_conditions":[4.5417E0,2.7813E0,6.2924E0,3.8976834E0,4.8E1,3.7E1,7.8287E0,-1.1827E2,1.9392E0,5.1144576E0,-1.2229E2,1.7E1,5.2099E0,2.8E1,1.9E1,-1.1851E2,-1.1715E2,2.5636364E1,4.314229E0,-1.1828E2,3.5547E0,-1.2261E2,9.656566E-1,5.4011E0,1.0371352E0,-1.2229E2,1.68E2,-1.2203E2,1.0738007E0,8.7471E0,1.38E2,-1.2187E2,-1.1846E2,2.6E1,-1.1689E2,4.76E2,1.4993188E-1,-1.2241E2,4E0,-1.1853E2,3.7159E0,-1.2042E2,3.8E1,-1.227E2,-1.2241E2,3.3182E0,-1.1979E2,-1.2225E2,1.0738007E0,-1.2188E2,4.9384375E0,4.3E1,9.2120075E-1,6.0531E0,3.69E2,5.44E2,1.175953E0,-1.172E2,1.68E2,9.7783935E-1,6.9E1,-1.1836E2,3.1909723E0,5.651107E-3,-4.9509536E-2,1.0469367E-1,5.6481967E-3,-1.1464935E-2,-3.344549E-2,-5.9521586E-2,-8.658314E-2,-5.9033185E-2,-7.499985E-2,5.3839218E-2,-3.253838E-2,9.8707445E-2,-5.512628E-2,-1.6495874E-3,4.465552E-2,-2.1214155E-2,-2.6714955E-3,-3.785261E-2,-5.231137E-2,-1.6971728E-2,1.6530253E-2,-3.230501E-2,2.1731779E-2,1.12481855E-1,6.721415E-2,-6.1859664E-2,-1.3788757E-2,3.1397361E-3,4.1500695E-2,3.3388857E-2,-9.8899035E-3,1.0280158E-2,4.9025282E-2,5.137973E-2,1.4189631E-2,1.5145521E-1,4.698203E-2,4.071049E-2,1.0219534E-1,-6.021283E-3,5.5695157E-2,-1.026887E-2,-9.606971E-2,4.4139277E-2,1.07498325E-1,2.10126E-2,1.207786E-1,5.9945285E-2,1.0630858E-1,1.17795326E-1,2.3736048E-3,3.8292658E-2,1.612109E-1,4.5445364E-2,9.6692584E-2,3.720721E-2,1.4500004E-1,9.985759E-2,-7.160413E-2,-3.2050695E-2,1.5665868E-1],"split_indices":[0,0,0,2,1,1,0,7,0,2,7,1,0,1,1,7,7,3,2,7,0,7,3,0,3,7,4,7,3,0,4,7,7,1,7,4,0,7,1,7,0,7,1,7,7,0,7,7,3,7,2,1,3,0,4,4,3,7,4,3,4,7,2,0,0,0,0,0,0,0,0,0,0,0,0,0,0,0,0,0,0,0,0,0,0,0,0,0,0,0,0,0,0,0,0,0,0,0,0,0,0,0,0,0,0,0,0,0,0,0,0,0,0,0,0,0,0,0,0,0,0,0,0,0,0],"split_type":[0,0,0,0,0,0,0,0,0,0,0,0,0,0,0,0,0,0,0,0,0,0,0,0,0,0,0,0,0,0,0,0,0,0,0,0,0,0,0,0,0,0,0,0,0,0,0,0,0,0,0,0,0,0,0,0,0,0,0,0,0,0,0,0,0,0,0,0,0,0,0,0,0,0,0,0,0,0,0,0,0,0,0,0,0,0,0,0,0,0,0,0,0,0,0,0,0,0,0,0,0,0,0,0,0,0,0,0,0,0,0,0,0,0,0,0,0,0,0,0,0,0,0,0,0],"sum_hessian":[1.3151E4,9.383E3,3.768E3,4.06E3,5.323E3,2.566E3,1.202E3,1.164E3,2.896E3,4.852E3,4.71E2,2.125E3,4.41E2,7.19E2,4.83E2,5.83E2,5.81E2,9.03E2,1.993E3,2.319E3,2.533E3,1.68E2,3.03E2,6.76E2,1.449E3,2.45E2,1.96E2,4.64E2,2.55E2,1.44E2,3.39E2,3.11E2,2.72E2,4.76E2,1.05E2,9.02E2,1E0,4.2E2,1.573E3,1.262E3,1.057E3,9.59E2,1.574E3,9E0,1.59E2,3.9E1,2.64E2,4.13E2,2.63E2,8.87E2,5.62E2,5.4E1,1.91E2,6E0,1.9E2,5.8E1,4.06E2,1.97E2,5.8E1,6.7E1,7.7E1,1.2E1,3.27E2,1.57E2,1.54E2,1.2E1,2.6E2,9.4E1,3.82E2,9.3E1,1.2E1,1.46E2,7.56E2,1.7E1,4.03E2,2E0,1.571E3,8.2E2,4.42E2,7.58E2,2.99E2,4.37E2,5.22E2,1.369E3,2.05E2,6E0,3E0,1.22E2,3.7E1,1.6E1,2.3E1,1.17E2,1.47E2,2.5E1,3.88E2,1.88E2,7.5E1,2.57E2,6.3E2,4.1E1,5.21E2,8E0,4.6E1,1.4E1,1.77E2,4E0,2E0,1.2E1,1.78E2,7E0,5.1E1,3.8E2,2.6E1,1.93E2,4E0,2E0,5.6E1,1.1E1,5.6E1,2E0,7.5E1,9E0,3E0,1E0,3.26E2],"tree_param":{"num_deleted":"0","num_feature":"8","num_nodes":"125","size_leaf_vector":"1"}},{"base_weights":[-3.041807E-3,-1.6150117E-1,7.2650206E-1,-3.4944186E-1,7.10073E-2,5.4289126E-1,1.2093741E0,-8.228067E-2,-4.207949E-1,5.7392675E-1,-7.7960335E-2,8.6270833E-1,3.17402E-1,1.0526034E0,1.3973308E0,-3.3639973E-1,7.971574E-2,-5.3000593E-1,-3.3513558E-1,1.1270653E-1,7.494626E-1,8.2892045E-2,-1.7123412E-1,5.02472E-1,1.0163935E0,2.0438035E-1,5.6770766E-1,8.630695E-1,1.3644097E0,4.9783927E-1,1.4306519E0,-1.9001059E-1,-4.6069455E-1,-2.2862382E-1,2.247003E-1,-6.402777E-1,-4.1654938E-1,-2.9390687E-1,-5.5254614E-1,4.2229597E-2,3.517248E-1,1.2856839E0,5.421504E-1,-6.1664645E-2,2.1548799E-1,-3.0713454E-1,-9.2820466E-2,3.3000332E-1,7.1503794E-1,1.7047366E0,9.0117013E-1,3.4398875E-1,5.9698846E-2,4.7407165E-1,9.044298E-1,1.1542696E0,7.33103E-1,5.0922453E-1,1.3868059E0,8.9313126E-1,-5.160275E-1,1.4451714E0,6.0255975E-2,-2.8097186E-2,1.41250165E-2,-6.909856E-2,-3.654427E-2,1.2410146E-1,-2.7001826E-2,6.960776E-2,1.5832564E-2,-5.7186015E-2,-8.201143E-2,-2.8686767E-2,-6.641125E-2,-3.9550077E-2,-1.4315577E-2,1.00442566E-1,-5.6230534E-2,8.736653E-3,-3.309063E-2,7.0618354E-2,8.378612E-3,6.322932E-2,1.420008E-1,3.409934E-2,7.320755E-2,-5.2384347E-2,-1.9685235E-3,5.8364596E-2,1.5654406E-2,8.4308945E-2,-3.1744123E-2,8.582757E-3,-1.4520356E-2,1.9009419E-2,5.5896085E-2,9.631233E-2,2.197527E-2,2.3714555E-2,1.7669103E-1,6.569669E-2,9.859124E-2,1.4939688E-2,4.1685265E-2,8.627587E-3,-2.1056915E-2,5.094197E-2,8.940208E-3,9.56693E-2,3.197889E-2,2.8470328E-2,1.2187636E-1,8.363313E-2,3.7012484E-2,1.2033308E-2,5.763641E-2,1.9377232E-2,1.3945521E-1,2.4233652E-2,1.6460405E-1,-6.7155957E-3,-6.432661E-2,1.4542069E-1,6.59188E-2,-5.171432E-2,8.962268E-2],"categories":[],"categories_nodes":[],"categories_segments":[],"categories_sizes":[],"default_left":[0,0,0,0,0,0,0,0,0,0,0,0,0,0,0,0,0,0,0,0,0,0,0,0,0,0,0,0,0,0,0,0,0,0,0,0,0,0,0,0,0,0,0,0,0,0,0,0,0,0,0,0,0,0,0,0,0,0,0,0,0,0,0,0,0,0,0,0,0,0,0,0,0,0,0,0,0,0,0,0,0,0,0,0,0,0,0,0,0,0,0,0,0,0,0,0,0,0,0,0,0,0,0,0,0,0,0,0,0,0,0,0,0,0,0,0,0,0,0,0,0,0,0,0,0,0,0],"id":7,"left_children":[1,3,5,7,9,11,13,15,17,19,21,23,25,27,29,31,33,35,37,39,41,43,45,47,49,51,53,55,57,59,61,63,65,67,69,71,73,75,77,79,81,83,85,87,89,91,93,95,97,99,101,103,105,107,109,111,113,115,117,119,121,123,125,-1,-1,-1,-1,-1,-1,-1,-1,-1,-1,-1,-1,-1,-1,-1,-1,-1,-1,-1,-1,-1,-1,-1,-1,-1,-1,-1,-1,-1,-1,-1,-1,-1,-1,-1,-1,-1,-1,-1,-1,-1,-1,-1,-1,-1,-1,-1,-1,-1,-1,-1,-1,-1,-1,-1,-1,-1,-1,-1,-1,-1,-1,-1,-1],"loss_changes":[1.5327827E3,4.76025E2,2.0911426E2,1.1479944E2,3.6489893E2,1.23476074E2,1.7711548E1,5.234928E1,4.4295837E1,9.002475E1,5.6396637E1,3.87417E1,2.8400246E1,2.0038544E1,8.06958E0,8.919193E0,3.478675E1,2.5856323E1,2.3743408E1,5.173491E0,8.890216E1,2.6464615E1,2.5323181E1,7.609482E0,3.78031E1,1.4037794E1,9.439903E0,7.7070465E0,1.860321E0,5.2701616E0,5.523987E0,6.939891E0,5.6043053E0,1.5482971E1,1.6440887E1,1.2536316E1,3.2941223E1,3.431111E1,7.00737E0,4.054198E0,6.588954E0,1.8761719E1,2.2023743E1,1.2814406E1,1.5533119E1,1.0581474E1,1.414325E1,3.7377348E0,1.1461288E1,5.968155E0,8.188751E0,4.9569893E0,2.4819083E0,3.312992E0,1.7412643E0,3.4665756E0,5.6481323E0,6.119442E-2,9.3115234E-1,4.0110087E0,1.85256E-1,1.0228271E0,2.394233E0,0E0,0E0,0E0,0E0,0E0,0E0,0E0,0E0,0E0,0E0,0E0,0E0,0E0,0E0,0E0,0E0,0E0,0E0,0E0,0E0,0E0,0E0,0E0,0E0,0E0,0E0,0E0,0E0,0E0,0E0,0E0,0E0,0E0,0E0,0E0,0E0,0E0,0E0,0E0,0E0,0E0,0E0,0E0,0E0,0E0,0E0,0E0,0E0,0E0,0E0,0E0,0E0,0E0,0E0,0E0,0E0,0E0,0E0,0E0,0E0,0E0,0E0,0E0,0E0],"parents":[2147483647,0,0,1,1,2,2,3,3,4,4,5,5,6,6,7,7,8,8,9,9,10,10,11,11,12,12,13,13,14,14,15,15,16,16,17,17,18,18,19,19,20,20,21,21,22,22,23,23,24,24,25,25,26,26,27,27,28,28,29,29,30,30,31,31,32,32,33,33,34,34,35,35,36,36,37,37,38,38,39,39,40,40,41,41,42,42,43,43,44,44,45,45,46,46,47,47,48,48,49,49,50,50,51,51,52,52,53,53,54,54,55,55,56,56,57,57,58,58,59,59,60,60,61,61,62,62],"right_children":[2,4,6,8,10,12,14,16,18,20,22,24,26,28,30,32,34,36,38,40,42,44,46,48,50,52,54,56,58,60,62,64,66,68,70,72,74,76,78,80,82,84,86,88,90,92,94,96,98,100,102,104,106,108,110,112,114,116,118,120,122,124,126,-1,-1,-1,-1,-1,-1,-1,-1,-1,-1,-1,-1,-1,-1,-1,-1,-1,-1,-1,-1,-1,-1,-1,-1,-1,-1,-1,-1,-1,-1,-1,-1,-1,-1,-1,-1,-1,-1,-1,-1,-1,-1,-1,-1,-1,-1,-1,-1,-1,-1,-1,-1,-1,-1,-1,-1,-1,-1,-1,-1,-1,-1,-1,-1],"split_conditions":[5.2713E0,3.3427E0,7.3518E0,2.2950819E0,2.395105E0,2.7457628E0,8.7471E0,2.3026E0,2.3333E0,2E1,2.805492E0,2.2E1,6.2924E0,2.9E1,6.9E1,1.9598699E0,2.2E1,-1.187E2,-1.1775E2,4.6173E0,1.9598699E0,4.125E0,3.9375E0,1.0683297E0,2.144781E0,3.1413794E0,2.7E1,2.786842E0,9.263158E-1,4.7E1,5.043887E0,1.2E3,1.6574E0,9.4008267E-1,-1.2234E2,-1.1985E2,-1.1782E2,-1.1892E2,4.1E1,-1.1719E2,-1.1829E2,2.5E1,4.0417E0,5.15E2,-1.222E2,1.38E2,-1.2166E2,1.7E1,-1.177E2,9.2120075E-1,5.5942E0,9.928741E-1,-1.1749E2,-1.1714E2,-1.1793E2,2.048583E0,-1.1773E2,8.125E-1,-1.2261E2,3.7E1,4.1E1,-1.1706E2,4.6E1,-2.8097186E-2,1.41250165E-2,-6.909856E-2,-3.654427E-2,1.2410146E-1,-2.7001826E-2,6.960776E-2,1.5832564E-2,-5.7186015E-2,-8.201143E-2,-2.8686767E-2,-6.641125E-2,-3.9550077E-2,-1.4315577E-2,1.00442566E-1,-5.6230534E-2,8.736653E-3,-3.309063E-2,7.0618354E-2,8.378612E-3,6.322932E-2,1.420008E-1,3.409934E-2,7.320755E-2,-5.2384347E-2,-1.9685235E-3,5.8364596E-2,1.5654406E-2,8.4308945E-2,-3.1744123E-2,8.582757E-3,-1.4520356E-2,1.9009419E-2,5.5896085E-2,9.631233E-2,2.197527E-2,2.3714555E-2,1.7669103E-1,6.569669E-2,9.859124E-2,1.4939688E-2,4.1685265E-2,8.627587E-3,-2.1056915E-2,5.094197E-2,8.940208E-3,9.56693E-2,3.197889E-2,2.8470328E-2,1.2187636E-1,8.363313E-2,3.7012484E-2,1.2033308E-2,5.763641E-2,1.9377232E-2,1.3945521E-1,2.4233652E-2,1.6460405E-1,-6.7155957E-3,-6.432661E-2,1.4542069E-1,6.59188E-2,-5.171432E-2,8.962268E-2],"split_indices":[0,0,0,5,5,5,0,0,0,1,5,1,0,1,4,5,1,7,7,0,5,0,0,3,5,5,1,5,3,1,5,4,0,3,7,7,7,7,4,7,7,1,0,4,7,4,7,1,7,3,0,3,7,7,7,5,7,3,7,1,4,7,1,0,0,0,0,0,0,0,0,0,0,0,0,0,0,0,0,0,0,0,0,0,0,0,0,0,0,0,0,0,0,0,0,0,0,0,0,0,0,0,0,0,0,0,0,0,0,0,0,0,0,0,0,0,0,0,0,0,0,0,0,0,0,0,0],"split_type":[0,0,0,0,0,0,0,0,0,0,0,0,0,0,0,0,0,0,0,0,0,0,0,0,0,0,0,0,0,0,0,0,0,0,0,0,0,0,0,0,0,0,0,0,0,0,0,0,0,0,0,0,0,0,0,0,0,0,0,0,0,0,0,0,0,0,0,0,0,0,0,0,0,0,0,0,0,0,0,0,0,0,0,0,0,0,0,0,0,0,0,0,0,0,0,0,0,0,0,0,0,0,0,0,0,0,0,0,0,0,0,0,0,0,0,0,0,0,0,0,0,0,0,0,0,0,0],"sum_hessian":[1.3257E4,1.0892E4,2.365E3,6.023E3,4.869E3,1.715E3,6.5E2,1.27E3,4.753E3,1.112E3,3.757E3,7.08E2,1.007E3,3.58E2,2.92E2,4.94E2,7.76E2,2.087E3,2.666E3,3.07E2,8.05E2,1.379E3,2.378E3,2.13E2,4.95E2,6.95E2,3.12E2,2.25E2,1.33E2,1.1E1,2.81E2,2.28E2,2.66E2,2.48E2,5.28E2,1.056E3,1.031E3,2.243E3,4.23E2,2.38E2,6.9E1,2.23E2,5.82E2,6.6E2,7.19E2,8.69E2,1.509E3,1.19E2,9.4E1,6.9E1,4.26E2,3.53E2,3.42E2,2.46E2,6.6E1,6.7E1,1.58E2,4E0,1.29E2,8E0,3E0,2.78E2,3E0,1.79E2,4.9E1,7.6E1,1.9E2,6E0,2.42E2,6.4E1,4.64E2,7.68E2,2.88E2,6.78E2,3.53E2,1.339E3,9.04E2,2E0,4.21E2,2.13E2,2.5E1,2.9E1,4E1,3.9E1,1.84E2,2.84E2,2.98E2,5.4E1,6.06E2,9.8E1,6.21E2,7E0,8.62E2,3.42E2,1.167E3,7.5E1,4.4E1,6.2E1,3.2E1,3E0,6.6E1,1.12E2,3.14E2,9.7E1,2.56E2,3.12E2,3E1,2.25E2,2.1E1,6E1,6E0,5E0,6.2E1,1.22E2,3.6E1,1E0,3E0,1E0,1.28E2,5E0,3E0,1E0,2E0,2.74E2,4E0,2E0,1E0],"tree_param":{"num_deleted":"0","num_feature":"8","num_nodes":"127","size_leaf_vector":"1"}},{"base_weights":[-3.4747925E-3,-1.9071297E-1,5.1842785E-1,1.3539477E-1,-2.7724978E-1,3.5923088E-1,1.0331668E0,-1.0509739E-1,4.8010123E-1,-4.253072E-1,-1.5040907E-1,8.2764953E-1,2.1921307E-1,8.97184E-1,1.2748944E0,1.8021874E-2,-4.445945E-1,5.659982E-1,-2.0852649E-1,-1.5956102E-1,-4.8842767E-1,2.2101231E-1,-1.836923E-1,1.0582737E0,6.3299954E-1,9.945138E-2,4.2826423E-1,1.064893E0,7.329589E-1,-2.7862443E-2,1.2811261E0,9.7835124E-1,-3.8152542E-2,-3.8301685E-1,-7.007777E-2,1.1924156E0,4.902442E-1,1.8662617E-1,-4.05929E-1,-3.7992247E-3,-3.2087445E-1,-3.9280394E-1,-5.665431E-1,5.2760655E-1,-2.4161121E-1,-1.4007653E-1,-4.2898652E-1,1.1183809E0,1.21247895E-1,5.436146E-1,9.9042845E-1,2.494796E-1,-3.1858236E-2,5.963019E-1,2.4061492E-1,1.1814084E0,6.63508E-1,1.1455365E0,6.770793E-1,1.3170974E0,1.058561E0,2.9666899E-2,1.21627346E-1,1.4818479E-2,-2.2573596E-2,-4.6400797E-2,-2.8398562E-2,-3.1491846E-2,1.3188876E-1,5.3427633E-2,-3.4783434E-2,-2.4552045E-2,4.5819014E-2,-4.2725593E-2,4.5816995E-2,4.068947E-3,-7.3767275E-2,2.7224308E-2,-3.3432145E-2,-2.5648773E-2,-5.8720637E-2,-5.0284326E-2,-7.627892E-2,8.5356064E-2,4.0322885E-2,2.5007909E-3,-5.5517983E-2,-7.621026E-3,-3.8895275E-2,-4.8684385E-2,-2.6181182E-2,1.4275751E-2,1.1604011E-1,2.2596693E-2,-4.7766957E-2,5.7266224E-2,-2.717951E-2,1.1629838E-1,4.6567064E-2,3.309963E-2,-1.339963E-2,6.2526175E-4,-2.9697297E-2,6.95832E-2,2.079024E-2,5.293678E-3,2.8636504E-2,1.2958851E-1,7.9985045E-2,7.843425E-2,-2.3506299E-2,1.3546509E-1,7.948514E-2,6.02732E-2,8.702599E-2,1.322571E-1,4.274107E-2,1.1300575E-1,2.533418E-3],"categories":[],"categories_nodes":[],"categories_segments":[],"categories_sizes":[],"default_left":[0,0,0,0,0,0,0,0,0,0,0,0,0,0,0,0,0,0,0,0,0,0,0,0,0,0,0,0,0,0,0,0,0,0,0,0,0,0,0,0,0,0,0,0,0,0,0,0,0,0,0,0,0,0,0,0,0,0,0,0,0,0,0,0,0,0,0,0,0,0,0,0,0,0,0,0,0,0,0,0,0,0,0,0,0,0,0,0,0,0,0,0,0,0,0,0,0,0,0,0,0,0,0,0,0,0,0,0,0,0,0,0,0,0,0,0,0,0,0],"id":8,"left_children":[1,3,5,7,9,11,13,15,17,19,21,23,25,27,29,31,33,35,37,39,41,43,45,47,49,51,53,55,57,-1,59,61,63,65,-1,67,69,71,73,75,77,79,81,83,85,87,89,91,93,95,97,99,101,103,105,107,109,111,113,115,117,-1,-1,-1,-1,-1,-1,-1,-1,-1,-1,-1,-1,-1,-1,-1,-1,-1,-1,-1,-1,-1,-1,-1,-1,-1,-1,-1,-1,-1,-1,-1,-1,-1,-1,-1,-1,-1,-1,-1,-1,-1,-1,-1,-1,-1,-1,-1,-1,-1,-1,-1,-1,-1,-1,-1,-1,-1,-1],"loss_changes":[1.2949879E3,2.7527036E2,2.8635388E2,1.6966222E2,1.4469E2,1.7519812E2,2.6007446E1,5.0417168E1,4.986403E1,5.9570496E1,5.1380432E1,2.693811E1,5.1532234E1,1.3871796E1,3.2129211E0,4.783343E1,4.795418E0,3.4910736E1,7.408145E0,1.7185286E1,2.1237915E1,4.863597E1,4.0723343E1,1.56345215E1,1.0196365E1,2.5834845E1,2.350563E1,1.1422485E1,5.4952545E0,0E0,9.595642E-1,7.5863495E0,2.932473E1,1.9616165E0,0E0,1.5666183E1,2.4873535E1,3.8678694E0,1.3567562E0,1.1424542E1,2.7708359E0,3.4167145E1,1.9355255E1,8.007351E0,1.146755E1,5.143771E1,5.4340897E0,1.06163025E1,1.2368624E0,6.5744705E0,5.4347153E0,1.9175274E1,7.074481E0,1.5125046E1,3.0415611E0,7.743042E0,6.8076477E0,1.1965866E0,2.9511948E0,6.4727783E-1,3.3694801E0,0E0,0E0,0E0,0E0,0E0,0E0,0E0,0E0,0E0,0E0,0E0,0E0,0E0,0E0,0E0,0E0,0E0,0E0,0E0,0E0,0E0,0E0,0E0,0E0,0E0,0E0,0E0,0E0,0E0,0E0,0E0,0E0,0E0,0E0,0E0,0E0,0E0,0E0,0E0,0E0,0E0,0E0,0E0,0E0,0E0,0E0,0E0,0E0,0E0,0E0,0E0,0E0,0E0,0E0,0E0,0E0,0E0,0E0],"parents":[2147483647,0,0,1,1,2,2,3,3,4,4,5,5,6,6,7,7,8,8,9,9,10,10,11,11,12,12,13,13,14,14,15,15,16,16,17,17,18,18,19,19,20,20,21,21,22,22,23,23,24,24,25,25,26,26,27,27,28,28,30,30,31,31,32,32,33,33,35,35,36,36,37,37,38,38,39,39,40,40,41,41,42,42,43,43,44,44,45,45,46,46,47,47,48,48,49,49,50,50,51,51,52,52,53,53,54,54,55,55,56,56,57,57,58,58,59,59,60,60],"right_children":[2,4,6,8,10,12,14,16,18,20,22,24,26,28,30,32,34,36,38,40,42,44,46,48,50,52,54,56,58,-1,60,62,64,66,-1,68,70,72,74,76,78,80,82,84,86,88,90,92,94,96,98,100,102,104,106,108,110,112,114,116,118,-1,-1,-1,-1,-1,-1,-1,-1,-1,-1,-1,-1,-1,-1,-1,-1,-1,-1,-1,-1,-1,-1,-1,-1,-1,-1,-1,-1,-1,-1,-1,-1,-1,-1,-1,-1,-1,-1,-1,-1,-1,-1,-1,-1,-1,-1,-1,-1,-1,-1,-1,-1,-1,-1,-1,-1,-1,-1],"split_conditions":[4.6875E0,2.3019416E0,6.9343E0,3.1979E0,2.925E0,2.511236E0,8.7471E0,3.793E1,3.797E1,3.7188406E0,-1.2236E2,2.2600896E0,5.7214E0,2.8167539E0,3.1909723E0,-1.2231E2,3.941E1,-1.2241E2,-1.2244E2,3.6340327E0,3.529E1,3.832E1,3.796E1,3.792E1,6.177E0,2.9694657E0,3.0088692E0,3.761E1,-1.2202E2,-2.7862443E-2,-1.1782E2,3.1909723E0,-1.183E2,2.3523E0,-7.007777E-2,3.773E1,-1.1715E2,1.0309278E0,1.8793522E1,3.79E1,-1.2226E2,-1.178E2,-1.1985E2,2.6063492E0,3.87E1,-1.1768E2,-1.2122E2,9.529412E-1,3.904E1,1.246124E0,3.761E1,3.792E1,3.797E1,-1.1786E2,9.7402596E-1,-1.1809E2,-1.2138E2,3.774E1,1.0526316E0,3.799E1,3.387E1,2.9666899E-2,1.21627346E-1,1.4818479E-2,-2.2573596E-2,-4.6400797E-2,-2.8398562E-2,-3.1491846E-2,1.3188876E-1,5.3427633E-2,-3.4783434E-2,-2.4552045E-2,4.5819014E-2,-4.2725593E-2,4.5816995E-2,4.068947E-3,-7.3767275E-2,2.7224308E-2,-3.3432145E-2,-2.5648773E-2,-5.8720637E-2,-5.0284326E-2,-7.627892E-2,8.5356064E-2,4.0322885E-2,2.5007909E-3,-5.5517983E-2,-7.621026E-3,-3.8895275E-2,-4.8684385E-2,-2.6181182E-2,1.4275751E-2,1.1604011E-1,2.2596693E-2,-4.7766957E-2,5.7266224E-2,-2.717951E-2,1.1629838E-1,4.6567064E-2,3.309963E-2,-1.339963E-2,6.2526175E-4,-2.9697297E-2,6.95832E-2,2.079024E-2,5.293678E-3,2.8636504E-2,1.2958851E-1,7.9985045E-2,7.843425E-2,-2.3506299E-2,1.3546509E-1,7.948514E-2,6.02732E-2,8.702599E-2,1.322571E-1,4.274107E-2,1.1300575E-1,2.533418E-3],"split_indices":[0,5,0,0,0,5,0,6,6,2,7,5,0,5,2,7,6,7,7,5,6,6,6,6,0,5,5,6,7,0,7,2,7,0,0,6,7,3,2,6,7,7,7,5,6,7,7,3,6,3,6,6,6,7,3,7,7,6,3,6,6,0,0,0,0,0,0,0,0,0,0,0,0,0,0,0,0,0,0,0,0,0,0,0,0,0,0,0,0,0,0,0,0,0,0,0,0,0,0,0,0,0,0,0,0,0,0,0,0,0,0,0,0,0,0,0,0,0,0],"split_type":[0,0,0,0,0,0,0,0,0,0,0,0,0,0,0,0,0,0,0,0,0,0,0,0,0,0,0,0,0,0,0,0,0,0,0,0,0,0,0,0,0,0,0,0,0,0,0,0,0,0,0,0,0,0,0,0,0,0,0,0,0,0,0,0,0,0,0,0,0,0,0,0,0,0,0,0,0,0,0,0,0,0,0,0,0,0,0,0,0,0,0,0,0,0,0,0,0,0,0,0,0,0,0,0,0,0,0,0,0,0,0,0,0,0,0,0,0,0,0],"sum_hessian":[1.325E4,9.752E3,3.498E3,2.045E3,7.707E3,2.673E3,8.25E2,1.205E3,8.4E2,3.555E3,4.152E3,6.14E2,2.059E3,5.31E2,2.94E2,8.85E2,3.2E2,7.47E2,9.3E1,6.83E2,2.872E3,3.41E2,3.811E3,2.79E2,3.35E2,1.31E3,7.49E2,2.6E2,2.71E2,1E0,2.93E2,4.8E1,8.37E2,2.6E2,6E1,7.9E1,6.68E2,3.1E1,6.2E1,3.48E2,3.35E2,1.294E3,1.578E3,2.05E2,1.36E2,3.237E3,5.74E2,2.62E2,1.7E1,2.7E2,6.5E1,6.11E2,6.99E2,3.94E2,3.55E2,2E2,6E1,3E1,2.41E2,2.48E2,4.5E1,1.3E1,3.5E1,4.2E2,4.17E2,1.41E2,1.19E2,6E0,7.3E1,6.35E2,3.3E1,1.2E1,1.9E1,6.1E1,1E0,3.29E2,1.9E1,7E0,3.28E2,7.62E2,5.32E2,1.194E3,3.84E2,5.5E1,1.5E2,7.4E1,6.2E1,2.577E3,6.6E2,4.25E2,1.49E2,1.1E1,2.51E2,1.5E1,2E0,2.61E2,9E0,4.8E1,1.7E1,5.04E2,1.07E2,6.12E2,8.7E1,3.13E2,8.1E1,7E1,2.85E2,1.52E2,4.8E1,5.3E1,7E0,1.7E1,1.3E1,1.77E2,6.4E1,2.46E2,2E0,4.2E1,3E0],"tree_param":{"num_deleted":"0","num_feature":"8","num_nodes":"119","size_leaf_vector":"1"}},{"base_weights":[-1.7810831E-3,7.018277E-2,-3.4889632E-1,2.2346108E-1,-1.99232E-1,-2.8069946E-1,-6.419487E-1,3.2095325E-1,-1.5260002E-1,1.1967022E-1,-2.5481084E-1,5.561479E-2,-3.648158E-1,-4.154785E-1,-6.649274E-1,8.3602387E-1,2.7341846E-1,5.3593345E-2,-5.122596E-1,3.2668278E-1,1.0773009E-2,-1.7567009E-1,-6.3365215E-1,2.5443047E-1,-4.466878E-1,-2.4702531E-1,-4.687162E-1,-4.2890486E-1,6.7501725E-3,-1.9576503E-2,-6.6809124E-1,8.750782E-2,8.835659E-1,4.566886E-1,5.008614E-2,3.640098E-1,-2.6104355E-1,-2.751496E-1,-5.776762E-1,4.0028524E-1,3.5009444E-2,3.1645206E-1,-8.427174E-2,3.4787714E-1,-2.1421999E-1,-4.5252922E-1,-7.382416E-1,6.61353E-1,1.1061279E-1,2.8187352E-1,-4.7833255E-1,3.163807E-2,-2.7694866E-1,-4.731071E-1,1.478088E-1,-9.168653E-2,-4.5311457E-1,-6.694042E-1,-8.326227E-3,6.925825E-2,-3.2073684E-2,1.0214231E-1,5.754757E-2,8.005151E-2,2.777697E-2,3.8491488E-2,-4.9291607E-2,-4.122614E-2,4.249681E-2,-2.0859137E-2,-8.4655635E-2,1.5754183E-1,-3.052021E-2,-3.7040513E-2,-6.52691E-2,9.7332366E-2,3.561819E-2,4.3295875E-2,-7.135977E-3,2.244278E-2,7.738813E-2,6.816864E-3,-3.464233E-2,5.7891387E-2,2.0752572E-2,-1.4691397E-2,-4.372136E-2,-1.21538285E-2,-5.0943233E-2,-4.6585727E-2,-7.453295E-2,-2.9288057E-2,7.568813E-2,2.2546982E-2,1.772159E-3,5.677661E-2,6.8458887E-3,-5.085371E-2,2.0330232E-2,7.475815E-2,9.794417E-4,-3.4994986E-2,-1.64564E-2,-3.5175283E-2,-5.2478876E-2,1.6814245E-2,-2.3434367E-2,-7.1092844E-3,-4.6151806E-2,-6.70639E-2,-9.9476455E-3],"categories":[],"categories_nodes":[],"categories_segments":[],"categories_sizes":[],"default_left":[0,0,0,0,0,0,0,0,0,0,0,0,0,0,0,0,0,0,0,0,0,0,0,0,0,0,0,0,0,0,0,0,0,0,0,0,0,0,0,0,0,0,0,0,0,0,0,0,0,0,0,0,0,0,0,0,0,0,0,0,0,0,0,0,0,0,0,0,0,0,0,0,0,0,0,0,0,0,0,0,0,0,0,0,0,0,0,0,0,0,0,0,0,0,0,0,0,0,0,0,0,0,0,0,0,0,0,0,0,0,0],"id":9,"left_children":[1,3,5,7,9,11,13,15,17,19,21,23,25,27,29,31,33,35,37,39,41,43,45,47,49,51,53,55,-1,-1,57,59,61,63,65,67,69,71,73,75,77,79,81,83,85,87,89,91,93,95,97,99,101,103,-1,105,107,109,-1,-1,-1,-1,-1,-1,-1,-1,-1,-1,-1,-1,-1,-1,-1,-1,-1,-1,-1,-1,-1,-1,-1,-1,-1,-1,-1,-1,-1,-1,-1,-1,-1,-1,-1,-1,-1,-1,-1,-1,-1,-1,-1,-1,-1,-1,-1,-1,-1,-1,-1,-1,-1],"loss_changes":[3.296323E2,4.5140372E2,4.5106415E1,2.554802E2,7.028929E1,5.2073013E1,1.9458618E0,1.3524023E2,1.0644622E2,1.3274362E1,1.0110718E2,3.6964073E1,1.7899261E1,3.0130863E-1,4.4213867E-1,1.654132E1,2.0737018E2,8.9266335E1,7.9532776E0,4.3439636E0,1.1270251E1,5.6464966E1,1.0710022E1,1.543535E1,2.5556183E0,5.77903E0,7.3754272E0,2.9317713E-1,0E0,0E0,2.3835754E-1,7.3856726E0,1.8057617E1,1.7097968E2,4.1563187E2,2.1942486E1,1.3766403E1,6.8764544E0,6.117508E0,3.74753E0,1.8087373E0,3.6990223E0,1.1852509E1,6.1057167E0,3.9003693E1,4.006317E0,3.63266E-1,6.5114613E0,2.0978382E0,2.6619965E-1,2.1828213E0,1.0561178E0,5.0700455E0,4.7073975E0,0E0,1.8766893E-1,8.918142E-2,2.0213318E-1,0E0,0E0,0E0,0E0,0E0,0E0,0E0,0E0,0E0,0E0,0E0,0E0,0E0,0E0,0E0,0E0,0E0,0E0,0E0,0E0,0E0,0E0,0E0,0E0,0E0,0E0,0E0,0E0,0E0,0E0,0E0,0E0,0E0,0E0,0E0,0E0,0E0,0E0,0E0,0E0,0E0,0E0,0E0,0E0,0E0,0E0,0E0,0E0,0E0,0E0,0E0,0E0,0E0],"parents":[2147483647,0,0,1,1,2,2,3,3,4,4,5,5,6,6,7,7,8,8,9,9,10,10,11,11,12,12,13,13,14,14,15,15,16,16,17,17,18,18,19,19,20,20,21,21,22,22,23,23,24,24,25,25,26,26,27,27,30,30,31,31,32,32,33,33,34,34,35,35,36,36,37,37,38,38,39,39,40,40,41,41,42,42,43,43,44,44,45,45,46,46,47,47,48,48,49,49,50,50,51,51,52,52,53,53,55,55,56,56,57,57],"right_children":[2,4,6,8,10,12,14,16,18,20,22,24,26,28,30,32,34,36,38,40,42,44,46,48,50,52,54,56,-1,-1,58,60,62,64,66,68,70,72,74,76,78,80,82,84,86,88,90,92,94,96,98,100,102,104,-1,106,108,110,-1,-1,-1,-1,-1,-1,-1,-1,-1,-1,-1,-1,-1,-1,-1,-1,-1,-1,-1,-1,-1,-1,-1,-1,-1,-1,-1,-1,-1,-1,-1,-1,-1,-1,-1,-1,-1,-1,-1,-1,-1,-1,-1,-1,-1,-1,-1,-1,-1,-1,-1,-1,-1],"split_conditions":[3.794E1,3.1092784E0,3.941E1,-1.1775E2,-1.2133E2,-1.2241E2,1.4E1,-1.2232E2,3.369E1,2.2E1,3.468E1,3.87E1,2.3E1,4.87E3,9.0234375E-1,2E1,3.451E1,-1.1715E2,3.391E1,3.9162562E0,-1.2236E2,-1.1851E2,-1.2017E2,3.816E1,-1.237E2,-1.2207E2,2.5636364E1,1.03E2,6.7501725E-3,-1.9576503E-2,4.367E3,-1.2246E2,2.642857E0,-1.1836E2,-1.2127E2,1.6509804E0,-1.1617E2,8.125E-1,-1.1744E2,6.51E2,1.2E1,3.776E1,3.761E1,2.2E1,-1.1749E2,3.6E1,3.486E1,1.8161291E0,3.841E1,7.78E2,1.9798658E0,1.7591463E0,-1.2125E2,-1.2191E2,1.478088E-1,9.656566E-1,9.453125E-1,4.195E1,-8.326227E-3,6.925825E-2,-3.2073684E-2,1.0214231E-1,5.754757E-2,8.005151E-2,2.777697E-2,3.8491488E-2,-4.9291607E-2,-4.122614E-2,4.249681E-2,-2.0859137E-2,-8.4655635E-2,1.5754183E-1,-3.052021E-2,-3.7040513E-2,-6.52691E-2,9.7332366E-2,3.561819E-2,4.3295875E-2,-7.135977E-3,2.244278E-2,7.738813E-2,6.816864E-3,-3.464233E-2,5.7891387E-2,2.0752572E-2,-1.4691397E-2,-4.372136E-2,-1.21538285E-2,-5.0943233E-2,-4.6585727E-2,-7.453295E-2,-2.9288057E-2,7.568813E-2,2.2546982E-2,1.772159E-3,5.677661E-2,6.8458887E-3,-5.085371E-2,2.0330232E-2,7.475815E-2,9.794417E-4,-3.4994986E-2,-1.64564E-2,-3.5175283E-2,-5.2478876E-2,1.6814245E-2,-2.3434367E-2,-7.1092844E-3,-4.6151806E-2,-6.70639E-2,-9.9476455E-3],"split_indices":[6,5,6,7,7,7,1,7,6,1,6,6,1,4,3,1,6,7,6,5,7,7,7,6,7,7,3,4,0,0,4,7,5,7,7,5,7,3,7,4,1,6,6,1,7,6,6,5,6,4,3,5,7,7,0,3,3,6,0,0,0,0,0,0,0,0,0,0,0,0,0,0,0,0,0,0,0,0,0,0,0,0,0,0,0,0,0,0,0,0,0,0,0,0,0,0,0,0,0,0,0,0,0,0,0,0,0,0,0,0,0],"split_type":[0,0,0,0,0,0,0,0,0,0,0,0,0,0,0,0,0,0,0,0,0,0,0,0,0,0,0,0,0,0,0,0,0,0,0,0,0,0,0,0,0,0,0,0,0,0,0,0,0,0,0,0,0,0,0,0,0,0,0,0,0,0,0,0,0,0,0,0,0,0,0,0,0,0,0,0,0,0,0,0,0,0,0,0,0,0,0,0,0,0,0,0,0,0,0,0,0,0,0,0,0,0,0,0,0,0,0,0,0,0,0],"sum_hessian":[1.3194E4,1.0929E4,2.265E3,6.966E3,3.963E3,1.839E3,4.26E2,5.532E3,1.434E3,5.88E2,3.375E3,3.68E2,1.471E3,4.1E1,3.85E2,4.66E2,5.066E3,9.12E2,5.22E2,2.02E2,3.86E2,2.793E3,5.82E2,2.64E2,1.04E2,6.91E2,7.8E2,4E1,1E0,3E0,3.82E2,2.8E1,4.38E2,2.782E3,2.284E3,4.59E2,4.53E2,1.14E2,4.08E2,1.61E2,4.1E1,9.1E1,2.95E2,1.91E2,2.602E3,2.15E2,3.67E2,6.8E1,1.96E2,4E0,1E2,6.7E1,6.24E2,7.79E2,1E0,3E0,3.7E1,3.81E2,1E0,1.1E1,1.7E1,3.01E2,1.37E2,9.51E2,1.831E3,1.413E3,8.71E2,3.3E1,4.26E2,4.17E2,3.6E1,1E0,1.13E2,1.1E2,2.98E2,1E1,1.51E2,8E0,3.3E1,7.7E1,1.4E1,1.87E2,1.08E2,7.1E1,1.2E2,2E3,6.02E2,3.2E1,1.83E2,1.1E1,3.56E2,6E0,6.2E1,8.7E1,1.09E2,1E0,3E0,9.6E1,4E0,1E0,6.6E1,3.77E2,2.47E2,2.35E2,5.44E2,1E0,2E0,1E0,3.6E1,3.8E2,1E0],"tree_param":{"num_deleted":"0","num_feature":"8","num_nodes":"111","size_leaf_vector":"1"}},{"base_weights":[1.1106132E-3,-7.8517824E-2,2.899173E-1,1.3369307E-1,-1.9838962E-1,4.0414503E-1,-1.9820285E-1,2.5089172E-1,-3.1331834E-1,-1.6252418E-1,-4.1306758E-1,5.2216935E-1,4.313912E-2,-1.0617164E-1,-4.6039078E-1,3.5322168E-1,-1.2973194E-1,-2.2642949E-1,-4.97788E-1,1.1223423E-1,-2.1900052E-1,-2.1719283E-1,-4.589919E-1,6.6228205E-1,3.1165266E-1,2.7797136E-1,-2.7078897E-1,1.3900313E-1,-2.2429608E-1,-6.1643004E-1,-2.4820173E-1,8.3651644E-1,2.9824844E-1,2.5576169E-2,-5.14693E-1,1.12023965E-1,-3.251776E-1,-5.32601E-1,-3.2506895E-1,3.5013005E-1,1.5804432E-2,-1.448903E-1,-5.328341E-1,9.724642E-2,-4.8449594E-1,-5.275453E-1,-3.669563E-1,8.671647E-1,5.0323457E-1,1.5284327E-1,6.2861264E-1,6.2028795E-1,7.088532E-3,7.0546344E-2,-3.8745564E-1,2.520819E-1,-4.6531814E-1,-2.3552817E-1,1.4041837E-1,-3.0443224E-1,-6.2884533E-1,-6.537473E-2,-4.1184574E-1,4.396735E-2,9.685554E-2,4.9936336E-2,2.9162748E-3,2.4642622E-2,-2.885273E-2,-2.111586E-2,-5.8911026E-2,4.4687793E-2,4.015172E-5,-3.728189E-2,-1.8894764E-2,-4.5591097E-2,-5.8143873E-2,-1.6135955E-2,-5.1345225E-2,7.937663E-2,2.8296528E-2,1.7683359E-2,-3.4337234E-2,-5.7298746E-3,-3.8586203E-2,-3.0253947E-2,-6.629794E-2,4.067753E-2,-2.612963E-3,-3.5754137E-2,-5.6954153E-2,-5.371281E-2,-6.6563E-3,-3.1401522E-2,-6.1943676E-2,6.8142034E-2,1.0388841E-1,7.877176E-2,-3.2717146E-2,2.3579514E-2,-3.434348E-2,4.5415614E-2,8.052066E-2,1.2078088E-1,4.927187E-2,9.977564E-3,-7.1267754E-2,-1.7632816E-2,5.3864557E-2,3.5858076E-2,-4.1934613E-2,3.33991E-2,5.675863E-3,-2.2950016E-2,-6.588345E-2,-3.4380402E-2,-1.4259124E-2,1.849891E-2,-4.7303487E-2,-6.5067105E-2,-3.940686E-2,5.4633967E-3,-2.265118E-2,-6.0154837E-2,-2.3087988E-2],"categories":[],"categories_nodes":[],"categories_segments":[],"categories_sizes":[],"default_left":[0,0,0,0,0,0,0,0,0,0,0,0,0,0,0,0,0,0,0,0,0,0,0,0,0,0,0,0,0,0,0,0,0,0,0,0,0,0,0,0,0,0,0,0,0,0,0,0,0,0,0,0,0,0,0,0,0,0,0,0,0,0,0,0,0,0,0,0,0,0,0,0,0,0,0,0,0,0,0,0,0,0,0,0,0,0,0,0,0,0,0,0,0,0,0,0,0,0,0,0,0,0,0,0,0,0,0,0,0,0,0,0,0,0,0,0,0,0,0,0,0,0,0,0,0],"id":10,"left_children":[1,3,5,7,9,11,13,15,17,19,21,23,25,27,29,31,33,35,37,39,41,43,45,47,49,51,53,55,57,59,61,63,65,67,69,71,73,75,77,79,81,83,85,87,89,91,93,95,97,99,101,103,105,107,109,111,113,115,-1,117,119,121,123,-1,-1,-1,-1,-1,-1,-1,-1,-1,-1,-1,-1,-1,-1,-1,-1,-1,-1,-1,-1,-1,-1,-1,-1,-1,-1,-1,-1,-1,-1,-1,-1,-1,-1,-1,-1,-1,-1,-1,-1,-1,-1,-1,-1,-1,-1,-1,-1,-1,-1,-1,-1,-1,-1,-1,-1,-1,-1,-1,-1,-1,-1],"loss_changes":[3.0262024E2,2.6242053E2,1.5865266E2,1.951757E2,5.068808E1,9.818768E1,1.2981035E1,1.14984955E2,1.2293236E1,8.7697586E1,8.382996E0,5.102826E1,4.20222E1,1.1644592E1,4.48238E0,6.154834E1,3.744019E1,1.7683056E1,1.312046E0,2.2108864E1,1.0893434E2,1.5260273E1,4.620453E0,3.351834E1,3.4937927E1,3.0224825E1,9.744013E0,9.069303E0,5.2876472E0,1.1844063E-1,1.7981069E0,1.1992645E1,1.1309027E2,3.1079384E1,3.941475E0,4.485087E0,2.5840378E0,4.9897003E-1,1.2741151E0,8.05888E0,3.979538E1,8.003708E1,2.6624115E1,3.2184587E0,8.544636E-1,1.8858566E0,4.2030983E0,1.3772827E1,1.39401E2,1.9223722E1,6.7817535E0,1.0197628E1,1.2279593E1,7.375369E0,4.4804153E0,1.7569046E0,8.071246E-1,2.6679401E0,0E0,5.0009483E-1,1.3302612E-1,5.9251076E-1,9.596653E-1,0E0,0E0,0E0,0E0,0E0,0E0,0E0,0E0,0E0,0E0,0E0,0E0,0E0,0E0,0E0,0E0,0E0,0E0,0E0,0E0,0E0,0E0,0E0,0E0,0E0,0E0,0E0,0E0,0E0,0E0,0E0,0E0,0E0,0E0,0E0,0E0,0E0,0E0,0E0,0E0,0E0,0E0,0E0,0E0,0E0,0E0,0E0,0E0,0E0,0E0,0E0,0E0,0E0,0E0,0E0,0E0,0E0,0E0,0E0,0E0,0E0,0E0],"parents":[2147483647,0,0,1,1,2,2,3,3,4,4,5,5,6,6,7,7,8,8,9,9,10,10,11,11,12,12,13,13,14,14,15,15,16,16,17,17,18,18,19,19,20,20,21,21,22,22,23,23,24,24,25,25,26,26,27,27,28,28,29,29,30,30,31,31,32,32,33,33,34,34,35,35,36,36,37,37,38,38,39,39,40,40,41,41,42,42,43,43,44,44,45,45,46,46,47,47,48,48,49,49,50,50,51,51,52,52,53,53,54,54,55,55,56,56,57,57,59,59,60,60,61,61,62,62],"right_children":[2,4,6,8,10,12,14,16,18,20,22,24,26,28,30,32,34,36,38,40,42,44,46,48,50,52,54,56,58,60,62,64,66,68,70,72,74,76,78,80,82,84,86,88,90,92,94,96,98,100,102,104,106,108,110,112,114,116,-1,118,120,122,124,-1,-1,-1,-1,-1,-1,-1,-1,-1,-1,-1,-1,-1,-1,-1,-1,-1,-1,-1,-1,-1,-1,-1,-1,-1,-1,-1,-1,-1,-1,-1,-1,-1,-1,-1,-1,-1,-1,-1,-1,-1,-1,-1,-1,-1,-1,-1,-1,-1,-1,-1,-1,-1,-1,-1,-1,-1,-1,-1,-1,-1,-1],"split_conditions":[6.2058825E0,2.5716946E0,3.799E1,3.794E1,3.792E1,-1.1768E2,3.904E1,-1.1784E2,3.889E1,-1.2135E2,-1.2243E2,3.0088692E0,3.373E1,-1.2207E2,-1.2122E2,-1.2236E2,3.369E1,-1.2236E2,-1.2135E2,-1.2224E2,3.468E1,3.868E1,5.512324E0,3.461E1,7.298305E0,-1.1717E2,-1.1749E2,3.876E1,2.5636364E1,2.0605633E0,3.926E1,3.776E1,3.451E1,-1.1714E2,-1.177E2,3.801E1,5.4594593E0,-1.2275E2,-1.2094E2,3.761E1,3.761E1,-1.1778E2,-1.2017E2,3.832E1,3.976E1,4.367E3,3.941E1,6.8299713E0,-1.2154E2,1.1231232E0,8E0,6.51E2,-1.1617E2,7.546392E0,1.8411924E0,-1.2232E2,-1.2265E2,3.854E1,1.4041837E-1,1.3677686E0,3.0966952E0,-1.2017E2,9.7757845E0,4.396735E-2,9.685554E-2,4.9936336E-2,2.9162748E-3,2.4642622E-2,-2.885273E-2,-2.111586E-2,-5.8911026E-2,4.4687793E-2,4.015172E-5,-3.728189E-2,-1.8894764E-2,-4.5591097E-2,-5.8143873E-2,-1.6135955E-2,-5.1345225E-2,7.937663E-2,2.8296528E-2,1.7683359E-2,-3.4337234E-2,-5.7298746E-3,-3.8586203E-2,-3.0253947E-2,-6.629794E-2,4.067753E-2,-2.612963E-3,-3.5754137E-2,-5.6954153E-2,-5.371281E-2,-6.6563E-3,-3.1401522E-2,-6.1943676E-2,6.8142034E-2,1.0388841E-1,7.877176E-2,-3.2717146E-2,2.3579514E-2,-3.434348E-2,4.5415614E-2,8.052066E-2,1.2078088E-1,4.927187E-2,9.977564E-3,-7.1267754E-2,-1.7632816E-2,5.3864557E-2,3.5858076E-2,-4.1934613E-2,3.33991E-2,5.675863E-3,-2.2950016E-2,-6.588345E-2,-3.4380402E-2,-1.4259124E-2,1.849891E-2,-4.7303487E-2,-6.5067105E-2,-3.940686E-2,5.4633967E-3,-2.265118E-2,-6.0154837E-2,-2.3087988E-2],"split_indices":[2,5,6,6,6,7,6,7,6,7,7,5,6,7,7,7,6,7,7,7,6,6,2,6,2,7,7,6,3,5,6,6,6,7,7,6,2,7,7,6,6,7,7,6,6,4,6,2,7,3,2,4,7,2,5,7,7,6,0,3,5,7,2,0,0,0,0,0,0,0,0,0,0,0,0,0,0,0,0,0,0,0,0,0,0,0,0,0,0,0,0,0,0,0,0,0,0,0,0,0,0,0,0,0,0,0,0,0,0,0,0,0,0,0,0,0,0,0,0,0,0,0,0,0,0],"split_type":[0,0,0,0,0,0,0,0,0,0,0,0,0,0,0,0,0,0,0,0,0,0,0,0,0,0,0,0,0,0,0,0,0,0,0,0,0,0,0,0,0,0,0,0,0,0,0,0,0,0,0,0,0,0,0,0,0,0,0,0,0,0,0,0,0,0,0,0,0,0,0,0,0,0,0,0,0,0,0,0,0,0,0,0,0,0,0,0,0,0,0,0,0,0,0,0,0,0,0,0,0,0,0,0,0,0,0,0,0,0,0,0,0,0,0,0,0,0,0,0,0,0,0,0,0],"sum_hessian":[1.3157E4,1.0314E4,2.843E3,3.723E3,6.591E3,2.304E3,5.39E2,2.95E3,7.73E2,5.649E3,9.42E2,1.736E3,5.68E2,4E2,1.39E2,2.325E3,6.25E2,5.27E2,2.46E2,9.63E2,4.686E3,1.8E2,7.62E2,1.041E3,6.95E2,3.25E2,2.43E2,1.3E2,2.7E2,7.9E1,6E1,2.36E2,2.089E3,4.46E2,1.79E2,1.19E2,4.08E2,2.03E2,4.3E1,2.77E2,6.86E2,3.792E3,8.94E2,8.3E1,9.7E1,4.34E2,3.28E2,4.53E2,5.88E2,4.64E2,2.31E2,1.43E2,1.82E2,6.2E1,1.81E2,1.1E2,2E1,2.69E2,1E0,4E0,7.5E1,2.9E1,3.1E1,6E1,1.76E2,1.195E3,8.94E2,2.62E2,1.84E2,3.6E1,1.43E2,2.9E1,9E1,3.01E2,1.07E2,8.3E1,1.2E2,2.4E1,1.9E1,3.5E1,2.42E2,4.74E2,2.12E2,2.782E3,1.01E3,3.24E2,5.7E2,2.3E1,6E1,4.1E1,5.6E1,4.25E2,9E0,2.73E2,5.5E1,2.2E2,2.33E2,4.38E2,1.5E2,3.98E2,6.6E1,1.18E2,1.13E2,2.4E1,1.19E2,1.62E2,2E1,4.1E1,2.1E1,7E0,1.74E2,7.7E1,3.3E1,1E1,1E1,1.23E2,1.46E2,1E0,3E0,6.7E1,8E0,1.7E1,1.2E1,1.4E1,1.7E1],"tree_param":{"num_deleted":"0","num_feature":"8","num_nodes":"125","size_leaf_vector":"1"}},{"base_weights":[1.8578948E-3,-1.2548089E-1,5.087988E-1,-2.4173516E-1,5.4730978E-2,3.1173506E-1,7.611662E-1,-4.544876E-2,-2.8628036E-1,3.9849883E-1,-5.5323113E-2,6.3399017E-1,1.7385718E-1,6.208279E-1,9.87291E-1,-2.5207955E-1,6.0567096E-2,-3.6162508E-1,-2.1422459E-1,-2.475431E-2,5.2440757E-1,4.6351902E-2,-1.6341285E-1,2.7904755E-1,7.89812E-1,2.6750433E-1,2.3353001E-2,5.1801723E-1,9.9265647E-1,1.0653555E0,6.837229E-1,-5.104818E-2,-3.347191E-1,-1.1701826E-1,2.2364049E-1,-2.7752915E-1,-4.539707E-1,-2.3274632E-1,1.3419883E-1,1.0629672E-1,-1.590369E-1,6.5587306E-1,-1.885733E-2,1.08932436E-1,-1.7342335E-1,-1.24791056E-1,-3.1597134E-1,1.3496783E-1,6.13113E-1,1.235751E0,6.3320774E-1,3.3502162E-1,3.8330417E-2,5.9258133E-2,-2.761212E-1,8.6754847E-1,4.600152E-1,1.8250655E-2,1.0185189E0,1.1506909E0,8.950484E-1,1.1014686E-1,3.8804334E-1,9.7980574E-2,-1.992382E-2,-2.3107568E-2,-5.0920572E-2,-4.847827E-2,-6.155197E-3,3.2767564E-2,-1.6397974E-2,-1.897662E-2,-4.6523385E-2,3.5625198E-3,-4.6644825E-2,-1.6311957E-2,-3.0279657E-2,5.181228E-2,-3.8769299E-3,7.662785E-2,1.6430927E-3,-2.5897766E-3,-4.2463366E-2,9.399779E-2,4.6521924E-2,1.1875085E-2,-2.6824147E-2,5.8750708E-2,6.691599E-3,7.3313527E-3,-2.4961093E-2,-8.925009E-3,-3.2485332E-2,-2.15203E-2,-4.379705E-2,-2.061774E-2,3.5818305E-2,7.781223E-2,-6.0044928E-3,1.363832E-1,5.436731E-2,-3.7616845E-2,6.482046E-2,4.6227276E-2,1.2113516E-2,5.3557146E-2,-9.916996E-3,-2.0981435E-2,9.56849E-3,-3.5694917E-3,-4.17274E-2,2.5581742E-2,9.6274294E-2,5.352406E-2,3.212547E-2,2.8003467E-2,-5.144427E-2,7.4681185E-2,1.08022235E-1,1.016733E-1,1.2131544E-1,9.190149E-2,-3.5725594E-3,-4.3592304E-2,4.9563777E-2],"categories":[],"categories_nodes":[],"categories_segments":[],"categories_sizes":[],"default_left":[0,0,0,0,0,0,0,0,0,0,0,0,0,0,0,0,0,0,0,0,0,0,0,0,0,0,0,0,0,0,0,0,0,0,0,0,0,0,0,0,0,0,0,0,0,0,0,0,0,0,0,0,0,0,0,0,0,0,0,0,0,0,0,0,0,0,0,0,0,0,0,0,0,0,0,0,0,0,0,0,0,0,0,0,0,0,0,0,0,0,0,0,0,0,0,0,0,0,0,0,0,0,0,0,0,0,0,0,0,0,0,0,0,0,0,0,0,0,0,0,0,0,0,0,0],"id":11,"left_children":[1,3,5,7,9,11,13,15,17,19,21,23,25,27,29,31,33,35,37,39,41,43,45,47,49,51,53,55,57,59,61,63,65,67,69,71,73,75,77,79,81,83,85,87,89,91,93,95,97,99,101,103,105,107,109,111,113,115,117,119,121,-1,123,-1,-1,-1,-1,-1,-1,-1,-1,-1,-1,-1,-1,-1,-1,-1,-1,-1,-1,-1,-1,-1,-1,-1,-1,-1,-1,-1,-1,-1,-1,-1,-1,-1,-1,-1,-1,-1,-1,-1,-1,-1,-1,-1,-1,-1,-1,-1,-1,-1,-1,-1,-1,-1,-1,-1,-1,-1,-1,-1,-1,-1,-1],"loss_changes":[8.482288E2,2.2003433E2,1.3095703E2,5.5806244E1,1.5585641E2,6.5782196E1,3.607141E1,2.5908329E1,2.8169708E1,5.325096E1,3.430745E1,2.4336288E1,1.465181E1,2.6857025E1,9.722351E0,6.644781E0,2.2672457E1,1.9614899E1,1.7210197E1,4.064416E0,5.5006226E1,2.214852E1,8.875294E0,6.51134E0,2.072699E1,9.905483E0,4.317427E0,1.1014908E1,3.8622894E0,4.042206E0,1.1059837E1,1.8221159E1,5.018303E0,7.619609E0,1.650679E1,2.1870918E1,7.408432E0,1.2280609E1,8.984979E0,6.926654E0,4.020194E0,3.3145416E1,5.213765E0,2.5156021E1,6.729287E0,8.567488E0,3.6553116E0,7.4602823E0,4.600892E0,6.2612305E0,3.7254639E0,1.3416569E1,1.0103624E1,3.5289917E0,1.44439E0,4.3541527E0,4.8906403E0,8.4131473E-1,1.7080688E0,6.8270874E-1,2.7320175E0,0E0,5.1806946E0,0E0,0E0,0E0,0E0,0E0,0E0,0E0,0E0,0E0,0E0,0E0,0E0,0E0,0E0,0E0,0E0,0E0,0E0,0E0,0E0,0E0,0E0,0E0,0E0,0E0,0E0,0E0,0E0,0E0,0E0,0E0,0E0,0E0,0E0,0E0,0E0,0E0,0E0,0E0,0E0,0E0,0E0,0E0,0E0,0E0,0E0,0E0,0E0,0E0,0E0,0E0,0E0,0E0,0E0,0E0,0E0,0E0,0E0,0E0,0E0,0E0,0E0],"parents":[2147483647,0,0,1,1,2,2,3,3,4,4,5,5,6,6,7,7,8,8,9,9,10,10,11,11,12,12,13,13,14,14,15,15,16,16,17,17,18,18,19,19,20,20,21,21,22,22,23,23,24,24,25,25,26,26,27,27,28,28,29,29,30,30,31,31,32,32,33,33,34,34,35,35,36,36,37,37,38,38,39,39,40,40,41,41,42,42,43,43,44,44,45,45,46,46,47,47,48,48,49,49,50,50,51,51,52,52,53,53,54,54,55,55,56,56,57,57,58,58,59,59,60,60,62,62],"right_children":[2,4,6,8,10,12,14,16,18,20,22,24,26,28,30,32,34,36,38,40,42,44,46,48,50,52,54,56,58,60,62,64,66,68,70,72,74,76,78,80,82,84,86,88,90,92,94,96,98,100,102,104,106,108,110,112,114,116,118,120,122,-1,124,-1,-1,-1,-1,-1,-1,-1,-1,-1,-1,-1,-1,-1,-1,-1,-1,-1,-1,-1,-1,-1,-1,-1,-1,-1,-1,-1,-1,-1,-1,-1,-1,-1,-1,-1,-1,-1,-1,-1,-1,-1,-1,-1,-1,-1,-1,-1,-1,-1,-1,-1,-1,-1,-1,-1,-1,-1,-1,-1,-1,-1,-1],"split_conditions":[5.1228E0,3.5E0,6.3525E0,2.232E0,2.4222221E0,2.5952382E0,3E1,2.2467E0,2.5125E0,1.8E1,2.9758065E0,2.2E1,3.1578126E0,8.7471E0,3.761E1,-1.2179E2,2.8E1,3.535E1,5.2E1,-1.1833E2,3.782E1,3.794E1,-1.178E2,5.826E0,2.2E0,3.763E1,3.775E1,2.516854E0,6.9E1,-1.1833E2,-1.2243E2,3.746E1,3.538E1,1.5668104E0,3.782E1,-1.1778E2,1.68E2,3.444E1,-1.2239E2,3.416E1,3.372E1,2.0605633E0,-1.2171E2,-1.222E2,-1.2239E2,3.792E1,3.389E1,1.118E3,2.516854E0,3.781E1,1.68E2,-1.1801E2,-1.2244E2,5.2405E0,-1.2199E2,5.44E2,-1.1793E2,2.7E1,9.281E0,3.5E1,-1.1717E2,1.1014686E-1,3.78E1,9.7980574E-2,-1.992382E-2,-2.3107568E-2,-5.0920572E-2,-4.847827E-2,-6.155197E-3,3.2767564E-2,-1.6397974E-2,-1.897662E-2,-4.6523385E-2,3.5625198E-3,-4.6644825E-2,-1.6311957E-2,-3.0279657E-2,5.181228E-2,-3.8769299E-3,7.662785E-2,1.6430927E-3,-2.5897766E-3,-4.2463366E-2,9.399779E-2,4.6521924E-2,1.1875085E-2,-2.6824147E-2,5.8750708E-2,6.691599E-3,7.3313527E-3,-2.4961093E-2,-8.925009E-3,-3.2485332E-2,-2.15203E-2,-4.379705E-2,-2.061774E-2,3.5818305E-2,7.781223E-2,-6.0044928E-3,1.363832E-1,5.436731E-2,-3.7616845E-2,6.482046E-2,4.6227276E-2,1.2113516E-2,5.3557146E-2,-9.916996E-3,-2.0981435E-2,9.56849E-3,-3.5694917E-3,-4.17274E-2,2.5581742E-2,9.6274294E-2,5.352406E-2,3.212547E-2,2.8003467E-2,-5.144427E-2,7.4681185E-2,1.08022235E-1,1.016733E-1,1.2131544E-1,9.190149E-2,-3.5725594E-3,-4.3592304E-2,4.9563777E-2],"split_indices":[0,0,0,5,5,5,1,0,0,1,5,1,5,0,6,7,1,6,1,7,6,6,7,0,5,6,6,5,4,7,7,6,6,5,6,7,4,6,7,6,6,5,7,7,7,6,6,4,5,6,4,7,7,0,7,4,7,1,0,1,7,0,6,0,0,0,0,0,0,0,0,0,0,0,0,0,0,0,0,0,0,0,0,0,0,0,0,0,0,0,0,0,0,0,0,0,0,0,0,0,0,0,0,0,0,0,0,0,0,0,0,0,0,0,0,0,0,0,0,0,0,0,0,0,0],"split_type":[0,0,0,0,0,0,0,0,0,0,0,0,0,0,0,0,0,0,0,0,0,0,0,0,0,0,0,0,0,0,0,0,0,0,0,0,0,0,0,0,0,0,0,0,0,0,0,0,0,0,0,0,0,0,0,0,0,0,0,0,0,0,0,0,0,0,0,0,0,0,0,0,0,0,0,0,0,0,0,0,0,0,0,0,0,0,0,0,0,0,0,0,0,0,0,0,0,0,0,0,0,0,0,0,0,0,0,0,0,0,0,0,0,0,0,0,0,0,0,0,0,0,0,0,0],"sum_hessian":[1.3138E4,1.0501E4,2.637E3,6.383E3,4.118E3,1.482E3,1.155E3,1.181E3,5.202E3,9.98E2,3.12E3,4.43E2,1.039E3,7.15E2,4.4E2,4E2,7.81E2,2.541E3,2.661E3,2.29E2,7.69E2,1.608E3,1.512E3,1.36E2,3.07E2,6.4E2,3.99E2,5.62E2,1.53E2,3.48E2,9.2E1,1.17E2,2.83E2,3.74E2,4.07E2,1.332E3,1.209E3,2.527E3,1.34E2,1.16E2,1.13E2,6.19E2,1.5E2,1.252E3,3.56E2,1.208E3,3.04E2,9.6E1,4E1,7.8E1,2.29E2,4.94E2,1.46E2,3.57E2,4.2E1,7.8E1,4.84E2,4E0,1.49E2,2.28E2,1.2E2,3.7E1,5.5E1,1.4E1,1.03E2,1.79E2,1.04E2,4.8E1,3.26E2,3.21E2,8.6E1,9.09E2,4.23E2,3E1,1.179E3,1.269E3,1.258E3,4.1E1,9.3E1,1.3E1,1.03E2,7.6E1,3.7E1,2.47E2,3.72E2,9.7E1,5.3E1,1E2,1.152E3,8.4E1,2.72E2,1.027E3,1.81E2,1.68E2,1.36E2,3.8E1,5.8E1,3.2E1,8E0,6.5E1,1.3E1,3E0,2.26E2,3.09E2,1.85E2,3.1E1,1.15E2,4.2E1,3.15E2,1.6E1,2.6E1,1.1E1,6.7E1,3.12E2,1.72E2,3E0,1E0,3E1,1.19E2,7.8E1,1.5E2,1.17E2,3E0,6E0,4.9E1],"tree_param":{"num_deleted":"0","num_feature":"8","num_nodes":"125","size_leaf_vector":"1"}},{"base_weights":[2.4744193E-3,-1.4871502E-1,3.4329194E-1,6.3641764E-2,-2.0527008E-1,2.2489598E-1,6.926176E-1,-7.251679E-2,2.8166682E-1,-3.2784092E-1,-1.3637228E-1,4.640357E-1,8.839341E-2,5.465073E-1,8.464169E-1,1.2742571E-3,-2.8036964E-1,3.667118E-1,-7.966175E-2,-2.5151932E-1,-4.1475987E-1,1.3366242E-1,-1.600531E-1,8.6391354E-1,3.9527178E-1,2.9276395E-2,2.382399E-1,7.886589E-1,4.4060224E-1,3.7666407E-1,8.632129E-1,1.5766986E-1,-2.0368965E-1,-2.1653417E-1,-4.0717784E-1,4.877044E-1,3.377114E-2,1.9950955E-1,-1.9109666E-1,-1.588261E-2,-3.10786E-1,8.5800074E-2,-4.2663983E-1,4.2114946E-1,-2.0641625E-1,-8.937846E-2,-2.5185898E-1,9.438464E-1,3.1598094E-1,4.742254E-1,1.696421E-1,8.725586E-2,-6.332871E-2,2.8329852E-1,9.33837E-3,9.654629E-1,3.295041E-1,7.473407E-1,3.6165956E-1,-3.918921E-1,6.7914075E-1,7.6622736E-1,9.665934E-1,5.624559E-2,3.1889228E-3,-7.523887E-2,-1.458437E-2,8.8900124E-4,-2.9910047E-2,-4.7088344E-2,-2.0040037E-2,7.5267486E-2,3.1320035E-2,2.6869407E-2,-3.3592954E-2,6.592524E-2,-3.7487228E-3,-2.6319653E-2,5.4194396E-3,-2.8741151E-2,1.121461E-2,-2.3823652E-2,-4.141557E-2,-3.829994E-2,6.922456E-2,-3.7596826E-2,-5.159476E-2,6.705098E-2,3.09308E-2,-2.0021559E-3,-3.572833E-2,1.5661877E-2,-1.5327555E-2,-1.5686741E-2,-5.723935E-2,9.887483E-2,1.804132E-2,4.6125244E-2,-2.7019272E-2,6.77365E-2,2.1329727E-2,5.766041E-2,-4.879498E-3,1.2146721E-2,-6.421608E-3,9.08027E-3,-1.2473545E-2,3.8493283E-2,1.49597125E-2,6.0177784E-2,-8.826988E-3,5.40233E-3,1.0240375E-1,8.187602E-2,1.3274431E-2,9.890245E-2,4.428728E-2,4.1792486E-2,1.9254697E-2,5.342405E-2,-6.839668E-2,-2.56296E-2,1.078945E-1,8.478902E-2,5.1181834E-2,9.7318865E-2,-2.6855929E-2],"categories":[],"categories_nodes":[],"categories_segments":[],"categories_sizes":[],"default_left":[0,0,0,0,0,0,0,0,0,0,0,0,0,0,0,0,0,0,0,0,0,0,0,0,0,0,0,0,0,0,0,0,0,0,0,0,0,0,0,0,0,0,0,0,0,0,0,0,0,0,0,0,0,0,0,0,0,0,0,0,0,0,0,0,0,0,0,0,0,0,0,0,0,0,0,0,0,0,0,0,0,0,0,0,0,0,0,0,0,0,0,0,0,0,0,0,0,0,0,0,0,0,0,0,0,0,0,0,0,0,0,0,0,0,0,0,0,0,0,0,0,0,0,0,0,0,0],"id":12,"left_children":[1,3,5,7,9,11,13,15,17,19,21,23,25,27,29,31,33,35,37,39,41,43,45,47,49,51,53,55,57,59,61,63,65,67,69,71,73,75,77,79,81,83,85,87,89,91,93,95,97,99,101,103,105,107,109,111,113,115,117,119,121,123,125,-1,-1,-1,-1,-1,-1,-1,-1,-1,-1,-1,-1,-1,-1,-1,-1,-1,-1,-1,-1,-1,-1,-1,-1,-1,-1,-1,-1,-1,-1,-1,-1,-1,-1,-1,-1,-1,-1,-1,-1,-1,-1,-1,-1,-1,-1,-1,-1,-1,-1,-1,-1,-1,-1,-1,-1,-1,-1,-1,-1,-1,-1,-1,-1],"loss_changes":[6.8130286E2,1.1001129E2,1.6788483E2,5.7225304E1,6.1036987E1,9.9063675E1,2.2638275E1,1.8206182E1,2.2799538E1,1.71568E1,2.9641373E1,2.99879E1,1.712532E1,1.32444E1,3.6119995E0,2.8144747E1,2.4293365E0,2.4153534E1,4.455664E0,1.9379059E1,7.2617493E0,3.665224E1,2.7611374E1,6.753212E0,1.6718414E1,7.4579678E0,5.6391106E0,1.2670746E1,8.713394E0,4.6830854E0,4.082062E0,2.533736E1,1.1951476E1,3.8926592E0,1.2624416E0,2.0109177E1,1.4073301E1,4.491974E0,1.8181801E0,9.766011E0,8.218185E0,8.509868E0,5.1776123E0,5.4540367E0,4.8296266E0,3.787417E1,5.630004E1,4.620758E0,1.9980223E0,3.6852905E1,2.189645E1,4.4332786E0,5.0749445E0,6.152424E0,5.3153744E0,6.084198E0,4.319546E0,5.08086E0,2.745533E0,1.9884017E0,5.512411E0,4.8223114E0,2.1268158E0,0E0,0E0,0E0,0E0,0E0,0E0,0E0,0E0,0E0,0E0,0E0,0E0,0E0,0E0,0E0,0E0,0E0,0E0,0E0,0E0,0E0,0E0,0E0,0E0,0E0,0E0,0E0,0E0,0E0,0E0,0E0,0E0,0E0,0E0,0E0,0E0,0E0,0E0,0E0,0E0,0E0,0E0,0E0,0E0,0E0,0E0,0E0,0E0,0E0,0E0,0E0,0E0,0E0,0E0,0E0,0E0,0E0,0E0,0E0,0E0,0E0,0E0,0E0,0E0],"parents":[2147483647,0,0,1,1,2,2,3,3,4,4,5,5,6,6,7,7,8,8,9,9,10,10,11,11,12,12,13,13,14,14,15,15,16,16,17,17,18,18,19,19,20,20,21,21,22,22,23,23,24,24,25,25,26,26,27,27,28,28,29,29,30,30,31,31,32,32,33,33,34,34,35,35,36,36,37,37,38,38,39,39,40,40,41,41,42,42,43,43,44,44,45,45,46,46,47,47,48,48,49,49,50,50,51,51,52,52,53,53,54,54,55,55,56,56,57,57,58,58,59,59,60,60,61,61,62,62],"right_children":[2,4,6,8,10,12,14,16,18,20,22,24,26,28,30,32,34,36,38,40,42,44,46,48,50,52,54,56,58,60,62,64,66,68,70,72,74,76,78,80,82,84,86,88,90,92,94,96,98,100,102,104,106,108,110,112,114,116,118,120,122,124,126,-1,-1,-1,-1,-1,-1,-1,-1,-1,-1,-1,-1,-1,-1,-1,-1,-1,-1,-1,-1,-1,-1,-1,-1,-1,-1,-1,-1,-1,-1,-1,-1,-1,-1,-1,-1,-1,-1,-1,-1,-1,-1,-1,-1,-1,-1,-1,-1,-1,-1,-1,-1,-1,-1,-1,-1,-1,-1,-1,-1,-1,-1,-1,-1],"split_conditions":[4.4211E0,2.3019416E0,6.5891E0,3.1979E0,2.5556E0,2.6877055E0,7.8287E0,3.796E1,3.782E1,3.535E1,-1.2239E2,2.048583E0,5.6762E0,2.5895522E0,1.38E2,-1.1826E2,3.889E1,-1.1811E2,-1.2244E2,-1.1829E2,1.68E2,3.832E1,3.451E1,3.781E1,3.761E1,3.1802325E0,3.767E1,3.758E1,-1.22E2,3.408E1,9.281E0,3.417E1,1.5076923E0,-1.2226E2,-1.2122E2,3.416E1,3.369E1,3.801E1,4.0893E0,3.404E1,-1.1778E2,1.7446E0,-1.2066E2,2.5770235E0,3.87E1,-1.183E2,-1.2017E2,-1.1724E2,-1.2205E2,-1.183E2,-1.2239E2,3.796E1,-1.2147E2,3.1413794E0,-1.2244E2,3.69E2,-1.2242E2,3.774E1,3.486E1,8E0,2.1189592E0,-1.1804E2,4.367E3,5.624559E-2,3.1889228E-3,-7.523887E-2,-1.458437E-2,8.8900124E-4,-2.9910047E-2,-4.7088344E-2,-2.0040037E-2,7.5267486E-2,3.1320035E-2,2.6869407E-2,-3.3592954E-2,6.592524E-2,-3.7487228E-3,-2.6319653E-2,5.4194396E-3,-2.8741151E-2,1.121461E-2,-2.3823652E-2,-4.141557E-2,-3.829994E-2,6.922456E-2,-3.7596826E-2,-5.159476E-2,6.705098E-2,3.09308E-2,-2.0021559E-3,-3.572833E-2,1.5661877E-2,-1.5327555E-2,-1.5686741E-2,-5.723935E-2,9.887483E-2,1.804132E-2,4.6125244E-2,-2.7019272E-2,6.77365E-2,2.1329727E-2,5.766041E-2,-4.879498E-3,1.2146721E-2,-6.421608E-3,9.08027E-3,-1.2473545E-2,3.8493283E-2,1.49597125E-2,6.0177784E-2,-8.826988E-3,5.40233E-3,1.0240375E-1,8.187602E-2,1.3274431E-2,9.890245E-2,4.428728E-2,4.1792486E-2,1.9254697E-2,5.342405E-2,-6.839668E-2,-2.56296E-2,1.078945E-1,8.478902E-2,5.1181834E-2,9.7318865E-2,-2.6855929E-2],"split_indices":[0,5,0,0,0,5,0,6,6,6,7,5,0,5,4,7,6,7,7,7,4,6,6,6,6,5,6,6,7,6,0,6,5,7,7,6,6,6,0,6,7,0,7,5,6,7,7,7,7,7,7,6,7,5,7,4,7,6,6,0,5,7,4,0,0,0,0,0,0,0,0,0,0,0,0,0,0,0,0,0,0,0,0,0,0,0,0,0,0,0,0,0,0,0,0,0,0,0,0,0,0,0,0,0,0,0,0,0,0,0,0,0,0,0,0,0,0,0,0,0,0,0,0,0,0,0,0],"split_type":[0,0,0,0,0,0,0,0,0,0,0,0,0,0,0,0,0,0,0,0,0,0,0,0,0,0,0,0,0,0,0,0,0,0,0,0,0,0,0,0,0,0,0,0,0,0,0,0,0,0,0,0,0,0,0,0,0,0,0,0,0,0,0,0,0,0,0,0,0,0,0,0,0,0,0,0,0,0,0,0,0,0,0,0,0,0,0,0,0,0,0,0,0,0,0,0,0,0,0,0,0,0,0,0,0,0,0,0,0,0,0,0,0,0,0,0,0,0,0,0,0,0,0,0,0,0,0],"sum_hessian":[1.322E4,9.158E3,4.062E3,1.926E3,7.232E3,3.035E3,1.027E3,1.186E3,7.4E2,2.601E3,4.631E3,1.102E3,1.933E3,5.29E2,4.98E2,8.76E2,3.1E2,5.99E2,1.41E2,1.387E3,1.214E3,3.73E2,4.258E3,1.6E2,9.42E2,1.387E3,5.46E2,1.59E2,3.7E2,1.8E1,4.8E2,4.97E2,3.79E2,2.08E2,1.02E2,4.39E2,1.6E2,4E1,1.01E2,2.79E2,1.108E3,2.8E1,1.186E3,2.02E2,1.71E2,2.407E3,1.851E3,1.39E2,2.1E1,6.97E2,2.45E2,8.53E2,5.34E2,4.56E2,9E1,1.14E2,4.5E1,7.4E1,2.96E2,5E0,1.3E1,2.52E2,2.28E2,1.17E2,3.8E2,3.5E1,3.44E2,5.6E1,1.52E2,7.7E1,2.5E1,1.73E2,2.66E2,9.8E1,6.2E1,1.3E1,2.7E1,7.8E1,2.3E1,8.9E1,1.9E2,6.53E2,4.55E2,1.6E1,1.2E1,7.6E2,4.26E2,6.1E1,1.41E2,7.7E1,9.4E1,4.96E2,1.911E3,1.429E3,4.22E2,1.31E2,8E0,1.7E1,4E0,3.91E2,3.06E2,8.5E1,1.6E2,6.96E2,1.57E2,1.52E2,3.82E2,2.58E2,1.98E2,1.2E1,7.8E1,7E0,1.07E2,1.2E1,3.3E1,4E1,3.4E1,2.21E2,7.5E1,1E0,4E0,4E0,9E0,1.89E2,6.3E1,2.27E2,1E0],"tree_param":{"num_deleted":"0","num_feature":"8","num_nodes":"127","size_leaf_vector":"1"}},{"base_weights":[-1.5793589E-3,-1.311173E-1,3.2693285E-1,-2.4975504E-1,-4.0236976E-2,2.2930981E-1,6.9027835E-1,6.766808E-2,-2.7432337E-1,-6.565001E-2,3.2565156E-1,1.1915464E-1,3.7431172E-1,5.668454E-1,8.186129E-1,-4.573402E-1,1.17421E-1,-3.9975238E-1,-2.2947787E-1,-1.1571141E-1,1.464713E-2,6.881541E-1,1.5953198E-1,3.4588613E-2,2.458898E-1,2.9280335E-1,5.364519E-1,6.2646186E-1,2.6400396E-1,-6.9212295E-2,8.2804126E-1,-5.732257E-1,6.2219036E-1,3.0972302E-1,-5.4471288E-2,-4.1244024E-1,-1.6287059E-1,-1.1942766E-1,-2.9678112E-1,1.8936792E-2,-1.8587463E-1,-1.771666E-1,4.8310164E-2,-3.3230346E-1,7.823761E-1,-3.831845E-1,2.2382276E-1,2.2606038E-1,-1.7586997E-2,1.9765823E-1,3.9142263E-1,1.8622863E-1,4.3923303E-1,-7.910663E-1,5.477104E-1,4.58562E-1,7.356123E-1,4.5581E-3,5.159069E-1,5.847603E-2,-3.788955E-2,7.2689825E-1,8.7404895E-1,-7.825409E-3,-6.683073E-2,7.718277E-2,1.6145784E-2,6.332899E-2,1.7270928E-2,1.911606E-2,-1.1229521E-2,-3.818641E-3,-4.1714728E-2,3.4707617E-2,-3.2058857E-2,3.9528254E-2,-1.40199065E-2,1.770453E-2,-3.0289486E-2,1.1309209E-2,-1.0413642E-2,-1.4891199E-2,-3.1299166E-2,-2.1103844E-2,3.791892E-2,-3.1637766E-3,1.549521E-2,-5.560258E-2,-9.04843E-3,8.729413E-2,4.8755568E-2,-5.6305178E-2,-2.5483994E-2,7.348249E-3,4.3921683E-2,1.6972138E-2,4.5676526E-2,-1.3059716E-2,4.2530857E-3,3.7496757E-2,1.5970528E-2,6.53485E-2,2.5332374E-2,2.993081E-2,1.1620744E-3,1.1452218E-1,3.8296077E-2,-1.9565094E-2,-9.2432104E-2,5.004133E-2,9.659746E-2,5.2764595E-2,2.0531854E-2,6.311378E-2,8.646899E-2,8.060349E-3,-3.764285E-2,1.965557E-3,6.392677E-2,5.042517E-2,8.486169E-2,4.4644725E-2,8.91215E-2],"categories":[],"categories_nodes":[],"categories_segments":[],"categories_sizes":[],"default_left":[0,0,0,0,0,0,0,0,0,0,0,0,0,0,0,0,0,0,0,0,0,0,0,0,0,0,0,0,0,0,0,0,0,0,0,0,0,0,0,0,0,0,0,0,0,0,0,0,0,0,0,0,0,0,0,0,0,0,0,0,0,0,0,0,0,0,0,0,0,0,0,0,0,0,0,0,0,0,0,0,0,0,0,0,0,0,0,0,0,0,0,0,0,0,0,0,0,0,0,0,0,0,0,0,0,0,0,0,0,0,0,0,0,0,0,0,0,0,0,0,0,0,0],"id":13,"left_children":[1,3,5,7,9,11,13,15,17,19,21,23,25,27,29,31,33,35,37,39,41,43,45,47,49,51,53,55,57,59,61,63,65,67,69,71,73,75,77,79,81,83,85,87,89,91,93,95,97,99,101,103,105,107,109,111,113,115,117,-1,-1,119,121,-1,-1,-1,-1,-1,-1,-1,-1,-1,-1,-1,-1,-1,-1,-1,-1,-1,-1,-1,-1,-1,-1,-1,-1,-1,-1,-1,-1,-1,-1,-1,-1,-1,-1,-1,-1,-1,-1,-1,-1,-1,-1,-1,-1,-1,-1,-1,-1,-1,-1,-1,-1,-1,-1,-1,-1,-1,-1,-1,-1],"loss_changes":[5.659365E2,1.028271E2,1.3324774E2,3.228116E1,5.0250996E1,4.7330475E1,1.2145172E1,7.837669E0,2.1507996E1,2.0309662E1,2.1027E1,1.80719E1,1.675911E1,7.2188416E0,3.3051758E0,3.6093059E0,9.04095E0,2.968399E0,2.0933014E1,2.9403671E1,1.2541658E1,1.0836437E1,8.529547E0,1.0124003E1,4.6606445E0,1.3245476E1,6.815193E0,5.911972E0,4.5071545E0,1.2341849E0,1.1515808E0,1.0772066E0,8.221066E-2,5.6095953E0,2.080959E0,1.6717072E0,4.3739405E0,1.1559206E1,5.140518E0,1.2376168E1,9.566696E0,5.5450134E0,1.4089527E1,4.906919E-1,2.271141E0,4.5672202E-1,6.994705E0,2.7429762E0,5.4203157E0,3.365387E0,5.878273E0,9.789825E0,1.3823631E1,1.3652349E-1,7.90448E0,2.2884903E0,2.21875E0,1.0443711E0,2.130063E0,0E0,0E0,2.9867096E0,1.5032349E0,0E0,0E0,0E0,0E0,0E0,0E0,0E0,0E0,0E0,0E0,0E0,0E0,0E0,0E0,0E0,0E0,0E0,0E0,0E0,0E0,0E0,0E0,0E0,0E0,0E0,0E0,0E0,0E0,0E0,0E0,0E0,0E0,0E0,0E0,0E0,0E0,0E0,0E0,0E0,0E0,0E0,0E0,0E0,0E0,0E0,0E0,0E0,0E0,0E0,0E0,0E0,0E0,0E0,0E0,0E0,0E0,0E0,0E0,0E0,0E0],"parents":[2147483647,0,0,1,1,2,2,3,3,4,4,5,5,6,6,7,7,8,8,9,9,10,10,11,11,12,12,13,13,14,14,15,15,16,16,17,17,18,18,19,19,20,20,21,21,22,22,23,23,24,24,25,25,26,26,27,27,28,28,29,29,30,30,31,31,32,32,33,33,34,34,35,35,36,36,37,37,38,38,39,39,40,40,41,41,42,42,43,43,44,44,45,45,46,46,47,47,48,48,49,49,50,50,51,51,52,52,53,53,54,54,55,55,56,56,57,57,58,58,61,61,62,62],"right_children":[2,4,6,8,10,12,14,16,18,20,22,24,26,28,30,32,34,36,38,40,42,44,46,48,50,52,54,56,58,60,62,64,66,68,70,72,74,76,78,80,82,84,86,88,90,92,94,96,98,100,102,104,106,108,110,112,114,116,118,-1,-1,120,122,-1,-1,-1,-1,-1,-1,-1,-1,-1,-1,-1,-1,-1,-1,-1,-1,-1,-1,-1,-1,-1,-1,-1,-1,-1,-1,-1,-1,-1,-1,-1,-1,-1,-1,-1,-1,-1,-1,-1,-1,-1,-1,-1,-1,-1,-1,-1,-1,-1,-1,-1,-1,-1,-1,-1,-1,-1,-1,-1,-1],"split_conditions":[4.5417E0,2.7813E0,6.9343E0,3.045238E0,5.2E1,2.8E1,8.1988E0,9.0234375E-1,1.8235E0,3.7644E0,-1.2241E2,5.6762E0,5.5942E0,-1.1773E2,4.805646E0,1.286E3,-1.1829E2,2.546E3,4.314229E0,4.5846868E0,1.4E1,-1.2251E2,9.656566E-1,-1.2185E2,1.069091E0,1.0371352E0,1.03E2,1.0135802E0,-1.1732E2,9.281E0,2.1E1,2.2291667E0,1.0353E0,2.8E1,6.59E2,9E0,3.690533E0,-1.2236E2,7E0,-1.1825E2,-1.178E2,1.4157304E0,1.0472972E0,-1.237E2,5.1459074E0,3.2674E0,-1.2101E2,1.0903426E0,-1.1904E2,-1.2197E2,6.5588236E0,-1.1822E2,4.794677E0,6.0531E0,1.1072088E0,-1.1809E2,-1.1853E2,-1.1757E2,9.8573977E-1,5.847603E-2,-3.788955E-2,1.0018797E0,1.38E2,-7.825409E-3,-6.683073E-2,7.718277E-2,1.6145784E-2,6.332899E-2,1.7270928E-2,1.911606E-2,-1.1229521E-2,-3.818641E-3,-4.1714728E-2,3.4707617E-2,-3.2058857E-2,3.9528254E-2,-1.40199065E-2,1.770453E-2,-3.0289486E-2,1.1309209E-2,-1.0413642E-2,-1.4891199E-2,-3.1299166E-2,-2.1103844E-2,3.791892E-2,-3.1637766E-3,1.549521E-2,-5.560258E-2,-9.04843E-3,8.729413E-2,4.8755568E-2,-5.6305178E-2,-2.5483994E-2,7.348249E-3,4.3921683E-2,1.6972138E-2,4.5676526E-2,-1.3059716E-2,4.2530857E-3,3.7496757E-2,1.5970528E-2,6.53485E-2,2.5332374E-2,2.993081E-2,1.1620744E-3,1.1452218E-1,3.8296077E-2,-1.9565094E-2,-9.2432104E-2,5.004133E-2,9.659746E-2,5.2764595E-2,2.0531854E-2,6.311378E-2,8.646899E-2,8.060349E-3,-3.764285E-2,1.965557E-3,6.392677E-2,5.042517E-2,8.486169E-2,4.4644725E-2,8.91215E-2],"split_indices":[0,0,0,2,1,1,0,3,0,0,7,0,0,7,2,4,7,4,2,2,1,7,3,7,3,3,4,3,7,0,1,2,0,1,4,1,2,7,1,7,7,3,3,7,2,0,7,3,7,7,2,7,2,0,3,7,7,7,3,0,0,3,4,0,0,0,0,0,0,0,0,0,0,0,0,0,0,0,0,0,0,0,0,0,0,0,0,0,0,0,0,0,0,0,0,0,0,0,0,0,0,0,0,0,0,0,0,0,0,0,0,0,0,0,0,0,0,0,0,0,0,0,0],"split_type":[0,0,0,0,0,0,0,0,0,0,0,0,0,0,0,0,0,0,0,0,0,0,0,0,0,0,0,0,0,0,0,0,0,0,0,0,0,0,0,0,0,0,0,0,0,0,0,0,0,0,0,0,0,0,0,0,0,0,0,0,0,0,0,0,0,0,0,0,0,0,0,0,0,0,0,0,0,0,0,0,0,0,0,0,0,0,0,0,0,0,0,0,0,0,0,0,0,0,0,0,0,0,0,0,0,0,0,0,0,0,0,0,0,0,0,0,0,0,0,0,0,0,0],"sum_hessian":[1.3297E4,9.537E3,3.76E3,4.136E3,5.401E3,2.965E3,7.95E2,2.97E2,3.839E3,5.051E3,3.5E2,1.686E3,1.279E3,4.08E2,3.87E2,2.5E1,2.72E2,1.009E3,2.83E3,3.111E3,1.94E3,1.09E2,2.41E2,1.012E3,6.74E2,8.53E2,4.26E2,3.4E2,6.8E1,4E0,3.83E2,2.3E1,2E0,1.28E2,1.44E2,9.57E2,5.2E1,1.075E3,1.755E3,1.066E3,2.045E3,2.89E2,1.651E3,9E0,1E2,2.5E1,2.16E2,2.16E2,7.96E2,5.08E2,1.66E2,4.95E2,3.58E2,3E0,4.23E2,1.36E2,2.04E2,3.4E1,3.4E1,1E0,3E0,1.25E2,2.58E2,4E0,1.9E1,1E0,1E0,3.7E1,9.1E1,2.7E1,1.17E2,1.2E1,9.45E2,1.2E1,4E1,4.1E1,1.034E3,2.2E1,1.733E3,6.04E2,4.62E2,1.586E3,4.59E2,2.73E2,1.6E1,9.44E2,7.07E2,4E0,5E0,7.5E1,2.5E1,9E0,1.6E1,1.28E2,8.8E1,1.75E2,4.1E1,2.76E2,5.2E2,8.8E1,4.2E2,5.6E1,1.1E2,3E2,1.95E2,2.5E1,3.33E2,1E0,2E0,3.82E2,4.1E1,1.06E2,3E1,1.16E2,8.8E1,2.9E1,5E0,7E0,2.7E1,4.6E1,7.9E1,1.1E1,2.47E2],"tree_param":{"num_deleted":"0","num_feature":"8","num_nodes":"123","size_leaf_vector":"1"}},{"base_weights":[1.9301331E-3,-1.1481633E-1,2.953156E-1,-2.420668E-1,-5.1213246E-2,1.9413213E-1,5.640645E-1,4.4145514E-3,-2.8027347E-1,-9.801308E-3,-2.3615892E-1,7.0672245E-3,2.628406E-1,4.6141726E-1,7.3385924E-1,-1.9474973E-1,1.3331386E-1,-3.4928593E-1,-2.287209E-1,-3.368811E-2,2.9044384E-1,-2.0691006E-1,-4.2058066E-1,1.1089376E-1,-9.876987E-2,2.981558E-1,-4.466477E-2,3.9495268E-1,7.637198E-1,7.899164E-1,4.4487053E-1,-2.416532E-1,1.2537098E-1,-1.5079938E-1,2.4839635E-1,-3.5184154E-1,1.3127257E-1,-1.351795E-1,-2.8881094E-1,-1.5432595E-1,3.0956992E-3,3.3196348E-1,-7.077213E-2,-3.6505583E-1,-1.8487982E-1,-4.658105E-1,-3.4939668E-1,3.1008223E-2,3.1922582E-1,-4.110083E-1,4.9118227E-3,2.4366647E-1,4.6095976E-1,3.3359908E-2,-3.4302306E-1,4.3842795E-1,1.8320708E-1,-2.606136E-1,7.841559E-1,3.7845883E-1,8.0325264E-1,3.4195486E-1,6.7603713E-1,3.1572867E-2,-2.7625307E-2,-1.8087983E-2,1.2027997E-1,-2.6034793E-2,4.460262E-2,2.9477179E-2,-3.842939E-2,-2.4121027E-2,-3.7196673E-2,-1.5164129E-2,4.1831315E-2,3.0921407E-3,-3.1227602E-2,-1.1231112E-3,-1.9734139E-2,-6.7596557E-3,9.389561E-3,2.2523068E-2,6.507678E-2,-3.3613365E-2,4.1473066E-3,-3.7761156E-2,2.5467312E-2,-2.1239338E-2,-4.432922E-3,-4.911945E-2,-2.3193048E-2,-1.8268172E-2,-3.72928E-2,-1.4959383E-2,8.004067E-3,1.1797122E-1,2.4419336E-2,-2.1339308E-3,-6.656764E-2,3.9143767E-2,-3.5306513E-3,1.7994938E-2,3.625655E-2,9.236084E-2,4.3150265E-2,-1.8697916E-2,1.5454351E-2,-1.9285824E-2,-4.911549E-2,3.6981724E-2,6.614869E-2,4.8345444E-3,3.005684E-2,8.592427E-3,-4.768447E-2,3.2710673E-3,7.905732E-2,-3.8415235E-2,6.753462E-2,7.407148E-2,9.376471E-2,3.93566E-2,-3.1125654E-2,-2.2172572E-3,7.160584E-2],"categories":[],"categories_nodes":[],"categories_segments":[],"categories_sizes":[],"default_left":[0,0,0,0,0,0,0,0,0,0,0,0,0,0,0,0,0,0,0,0,0,0,0,0,0,0,0,0,0,0,0,0,0,0,0,0,0,0,0,0,0,0,0,0,0,0,0,0,0,0,0,0,0,0,0,0,0,0,0,0,0,0,0,0,0,0,0,0,0,0,0,0,0,0,0,0,0,0,0,0,0,0,0,0,0,0,0,0,0,0,0,0,0,0,0,0,0,0,0,0,0,0,0,0,0,0,0,0,0,0,0,0,0,0,0,0,0,0,0,0,0,0,0,0,0],"id":14,"left_children":[1,3,5,7,9,11,13,15,17,19,21,23,25,27,29,31,33,35,37,39,41,43,45,47,49,51,53,55,57,59,61,63,65,67,69,71,-1,73,75,77,79,81,83,85,87,89,91,93,95,97,99,101,103,105,107,109,111,113,115,117,119,121,123,-1,-1,-1,-1,-1,-1,-1,-1,-1,-1,-1,-1,-1,-1,-1,-1,-1,-1,-1,-1,-1,-1,-1,-1,-1,-1,-1,-1,-1,-1,-1,-1,-1,-1,-1,-1,-1,-1,-1,-1,-1,-1,-1,-1,-1,-1,-1,-1,-1,-1,-1,-1,-1,-1,-1,-1,-1,-1,-1,-1,-1,-1],